svm_type epsilon_svr
kernel_type linear
nr_class 2
total_sv 2440
rho -6.31438e+07
SV
1 1:0.0803304 3:0.0747351 4:0.00193247 5:0.517968 
1 1:0.217123 2:0.386822 3:0.00893968 4:0.000137782 5:0.276425 
1 1:0.77347 2:0.452469 3:0.102074 4:0.00214356 5:0.170537 
1 1:0.451793 2:0.38807 3:0.271063 4:0.0055987 5:0.672712 
1 1:0.112998 3:0.0546845 4:0.00129921 5:0.122635 
1 1:0.0637965 3:0.0141254 4:0.0026364 5:0.224833 
1 2:0.136356 3:0.015585 4:0.000457505 5:0.17295 
1 1:0.752376 2:0.915662 3:0.391742 4:0.012025 5:0.283694 
1 1:0.0323271 2:0.0451013 3:0.0231012 4:0.000385082 5:0.194305 
1 1:0.309151 2:0.340927 3:0.248961 4:0.0194608 5:0.256811 
1 1:0.0375659 3:0.00625457 4:0.000919427 5:0.137334 
1 1:0.77347 3:0.00574211 4:0.000111285 5:0.193053 
1 1:0.217123 2:0.307211 3:0.00272666 4:4.15111e-05 5:0.305838 
1 1:0.217123 2:0.160447 3:0.0363722 4:0.000897347 5:0.105543 
1 1:0.278674 3:0.338129 4:0.0116902 5:0.320293 
1 1:0.166638 3:0.00793647 4:0.000138665 5:0.0882093 
1 1:0.752376 2:0.844316 3:0.586155 4:0.017349 5:0.581046 
1 1:0.217123 3:0.0561085 4:0.000823156 5:0.217446 
1 1:0.452823 2:0.225808 3:0.079187 4:0.00130363 5:0.154749 
1 1:0.389491 2:0.586815 3:0.190347 4:0.00517829 5:0.212567 
1 1:0.069444 3:0.109966 4:0.00593874 5:0.262308 
1 1:0.210324 3:0.00359134 4:6.18251e-05 5:0.122441 
1 1:0.389491 2:0.586815 3:0.0827987 4:0.00219037 5:0.284778 
1 2:0.946255 3:0.00133052 4:4.41608e-05 5:0.0861425 
1 2:0.0467075 3:0.134867 4:0.00722647 5:0.185087 
1 1:0.690145 2:0.920449 3:0.454177 4:0.0179045 5:0.221099 
1 1:0.112998 3:0.0480665 4:0.00132041 5:0.116522 
1 1:0.478532 3:0.356233 4:0.0149007 5:0.250786 
1 1:0.77347 3:0.143095 4:0.00289518 5:0.304207 
1 1:0.0637965 3:0.143455 4:0.0184539 5:0.242213 
1 1:0.752376 3:0.153605 4:0.00440194 5:0.326796 
1 1:0.217123 3:0.0655708 4:0.00227428 5:0.179918 
1 1:0.180954 3:0.114463 4:0.00653579 5:0.2236 
1 1:0.207335 2:0.28656 3:0.0306717 4:0.00150412 5:0.139742 
1 1:0.391255 3:0.0381455 4:0.00136103 5:0.186825 
1 1:0.300445 2:0.235735 3:0.0588761 4:0.00157477 5:0.140996 
1 1:0.069444 3:0.200199 4:0.0100616 5:0.189008 
1 1:0.210237 2:0.20293 3:0.0606669 4:0.000971537 5:0.152011 
1 2:0.0524446 3:0.0246425 4:0.00077458 5:0.0602672 
1 1:0.334434 3:0.0131264 4:0.000360352 5:0.128799 
1 1:0.119555 2:0.0387005 3:0.0592417 4:0.00166839 5:0.323057 
1 1:0.451793 2:0.0982754 3:0.00871541 4:0.00027468 5:0.164895 
1 1:0.225077 2:0.138735 3:0.371799 4:0.0116514 5:0.164526 
1 1:0.177079 3:0.0981601 4:0.0040045 5:0.273872 
1 1:0.180954 2:0.0498207 3:0.288525 4:0.00982224 5:0.302725 
1 1:0.209388 2:0.249695 3:0.0443102 4:0.00127183 5:0.231909 
1 1:0.0952866 3:0.0296392 4:0.000906179 5:0.0619887 
1 2:0.445543 3:0.0187886 4:0.000337388 5:0.21294 
1 1:0.0781566 3:0.0198054 4:0.000327673 5:0.128962 
1 1:0.0905163 2:0.0963545 3:0.102684 4:0.00317516 5:0.221733 
1 1:0.391255 3:0.101755 4:0.00203404 5:0.187698 
1 1:0.383716 3:0.0273524 4:0.000738368 5:0.194618 
1 1:0.150262 3:0.110237 4:0.00456887 5:0.0424003 
1 2:0.346425 3:0.0695729 4:0.00277771 5:0.161729 
1 1:0.209388 2:0.249695 3:0.032002 4:0.00254013 5:0.0862337 
1 1:0.116763 2:0.137608 3:0.0154995 4:0.000521097 5:0.0701515 
1 1:0.0194609 3:0.0478067 4:0.00230696 5:0.164508 
1 1:0.0756627 2:0.00992357 3:0.0135691 4:0.000268497 5:0.0435938 
1 2:0.245152 3:0.0688231 4:0.00280951 5:0.0830041 
1 2:0.22283 3:0.188737 4:0.00993087 5:0.0621202 
1 2:0.454329 3:0.00487442 4:4.68104e-05 5:0.168436 
1 1:0.0407235 2:0.0812977 3:0.300918 4:0.0235359 5:0.14211 
1 1:0.451793 2:0.183928 3:0.160412 4:0.00312482 5:0.990094 
1 2:0.0179664 3:0.0291323 4:0.000605886 5:0.398483 
1 2:0.0687881 3:0.00359302 4:2.64965e-05 5:0.0669935 
1 1:0.752376 2:0.0412878 3:0.211732 4:0.0173693 5:0.408211 
1 1:0.17561 2:0.105719 3:0.0248187 4:0.000734835 5:0.143785 
1 1:0.452823 2:0.0593796 3:0.00226239 4:4.946e-05 5:0.0746408 
1 1:0.118725 2:0.185224 3:0.00223486 4:6.18251e-05 5:0.0686148 
1 1:0.452823 2:0.558082 3:0.372166 4:0.0180238 5:0.205334 
1 1:0.25327 2:0.198752 3:0.00151752 4:1.32482e-05 5:0.0661762 
1 1:0.380749 3:0.0809483 4:0.00240411 5:0.260251 
1 1:0.232597 2:0.0700534 3:0.00827279 4:0.000198723 5:0.0833618 
1 1:0.213898 2:0.200759 3:0.00121348 4:2.38468e-05 5:0.100185 
1 1:1 2:0.232967 3:0.173467 4:0.00649605 5:0.104059 
1 1:0.752376 3:0.0185279 4:0.000341804 5:0.306662 
1 2:0.915662 3:0.0134293 4:0.000281746 5:0.133276 
1 1:0.740484 2:0.266809 3:0.117284 4:0.00377045 5:0.186571 
-1 1:0.0187252 2:0.296954 3:0.072098 4:0.00180882 5:0.0685185 
1 1:0.690145 2:0.126175 3:0.123946 4:0.00299057 5:0.298519 
1 1:0.248235 2:0.298968 3:0.00200931 4:6.18251e-05 5:0.0815211 
1 1:0.216474 2:0.148381 3:0.164828 4:0.00722558 5:0.0785646 
1 1:0.121581 3:0.0265603 4:0.00106162 5:0.160906 
1 1:0.119555 3:0.00312216 4:8.39054e-05 5:0.0727469 
1 1:0.236168 2:0.123667 3:0.148017 4:0.00788888 5:0.0663906 
1 1:0.0449979 2:0.208428 3:0.0249062 4:0.000563491 5:0.287048 
1 1:0.130595 2:0.000470051 3:0.00961498 4:0.000166044 5:0.176951 
1 1:0.478532 3:0.0492119 4:0.00151383 5:0.413047 
1 2:0.346641 3:0.120383 4:0.00316456 5:0.572836 
1 1:0.456536 2:0.387978 3:0.0214118 4:0.000308242 5:0.872138 
1 1:0.389491 2:0.586815 3:0.0223605 4:0.000428359 5:0.371462 
1 1:0.113402 2:0.275357 3:0.121368 4:0.011019 5:0.158228 
1 2:0.216636 3:0.0122572 4:0.000186358 5:0.269205 
1 1:0.0407235 2:0.0105283 3:0.201338 4:0.00668859 5:0.303487 
1 2:0.336515 3:0.129501 4:0.00469694 5:0.110436 
1 1:0.0530773 2:0.135177 3:0.00276809 4:7.50733e-05 5:0.0473245 
1 1:0.217123 3:0.0549085 4:0.00244562 5:0.0298926 
1 1:0.248235 2:0.298968 3:0.00216065 4:1.67811e-05 5:0.124298 
1 1:0.0600673 3:0.103203 4:0.00766719 5:0.101029 
1 1:0.130595 2:0.266809 3:0.195581 4:0.0131228 5:0.113039 
1 2:0.454329 3:0.0210708 4:0.000343571 5:0.0626425 
1 1:0.309151 2:0.000116051 3:0.00608378 4:9.62704e-05 5:0.148387 
1 1:0.391255 3:0.0495792 4:0.00425975 5:0.294366 
1 1:0.166087 2:0.00012193 3:0.0421381 4:0.00164013 5:0.0800588 
1 1:0.0323271 2:0.645764 3:0.0025369 4:4.76936e-05 5:0.212787 
1 1:0.130311 2:0.0527227 3:0.00390987 4:9.18544e-05 5:0.231051 
1 1:0.452823 3:0.00177964 4:3.44454e-05 5:0.202657 
1 1:0.452823 3:0.0189862 4:0.000283512 5:0.313339 
1 1:0.217123 2:0.174721 3:0.00742213 4:0.000270264 5:0.18915 
1 1:0.00403707 2:0.671528 3:0.00223067 4:5.21097e-05 5:0.279423 
1 1:0.451793 2:0.608812 3:0.00469912 4:0.000110402 5:0.579066 
1 2:0.0488948 3:0.0294267 4:0.000461922 5:0.0869945 
1 1:0.180954 2:0.0416737 3:0.0030386 4:6.44747e-05 5:0.211492 
1 1:0.192844 3:0.00224695 4:4.15111e-05 5:0.243273 
1 1:0.748463 3:0.0833042 4:0.00243061 5:0.243874 
1 1:0.273146 3:0.194136 4:0.00745169 5:0.344982 
1 1:0.119555 2:0.387309 3:0.0102236 4:0.000732185 5:0.125286 
1 1:0.748463 3:0.244153 4:0.00863343 5:0.315394 
1 1:0.121108 3:0.00709575 4:3.09125e-05 5:0.0857506 
1 1:0.0253016 2:0.2946 3:0.00669365 4:0.000171344 5:0.0191495 
1 1:0.0803304 2:0.0151852 3:0.0620061 4:0.00110755 5:0.0883364 
1 1:0.217123 3:0.00768148 4:0.000253483 5:0.116085 
1 1:0.380749 2:0.7434 3:0.094385 4:0.00177968 5:0.141761 
1 1:0.0157457 3:0.00320975 4:6.71243e-05 5:0.0512814 
1 2:0.22283 3:0.188737 4:0.00993087 5:0.0621202 
1 1:0.0421442 3:0.00461008 4:0.000424826 5:0.0621706 
1 1:0.0381788 3:0.0585847 4:0.00164631 5:0.108542 
1 1:0.44225 2:0.230649 3:0.037839 4:0.00374572 5:0.0691629 
1 1:0.380749 2:0.177486 3:0.00351526 4:2.82629e-05 5:0.149886 
1 1:0.200388 2:0.339504 3:0.0429953 4:0.000795777 5:0.0962451 
-1 1:0.0774182 2:0.295194 3:0.0046193 4:0.000419527 5:0.0101704 
1 1:0.180954 3:0.000952164 4:4.41608e-06 5:0.049926 
1 1:0.180954 2:0.0414152 3:0.07533 4:0.00421824 5:0.0262285 
1 1:0.157675 2:0.166976 3:0.0483785 4:0.00252688 5:0.0282534 
1 1:0.0229393 2:0.0493129 3:0.00582579 4:9.18544e-05 5:0.22399 
1 2:0.0488948 3:0.0315411 4:0.000995383 5:0.0700172 
1 1:0.0121675 3:0.00108946 4:3.88615e-05 5:0.0981295 
1 1:0.190427 2:0.191975 3:0.188661 4:0.999998 5:0.159985 
1 1:0.116105 2:0.112699 3:0.024253 4:0.000415994 5:0.187218 
1 1:0.184576 2:0.553979 3:0.00509415 4:7.59565e-05 5:0.15509 
1 2:0.203189 3:0.00328887 4:0.00010157 5:0.0811829 
1 1:0.0381788 2:0.109045 3:0.152091 4:0.00535758 5:0.0489077 
1 1:0.380749 3:0.00290219 4:5.91754e-05 5:0.212137 
1 1:0.209388 2:0.0147032 3:0.0542733 4:0.00136192 5:0.07243 
1 1:0.0756627 3:0.00282152 4:3.7095e-05 5:0.0638047 
1 1:0.421601 2:0.465804 3:0.00530791 4:8.56719e-05 5:0.184477 
1 1:0.451793 2:0.15783 3:0.079052 4:0.00392236 5:0.0759609 
1 1:0.209388 2:0.249695 3:0.0305755 4:0.00228046 5:0.293104 
1 1:0.0637965 2:0.242616 3:0.237117 4:0.0344083 5:0.318032 
1 1:0.0449979 3:0.112036 4:0.00358939 5:0.13141 
1 1:0.128661 2:0.0374323 3:0.102988 4:0.0148354 5:0.0396476 
1 1:0.0530773 3:0.00485555 4:8.39054e-05 5:0.025901 
1 2:0.0670055 3:0.00387611 4:3.7095e-05 5:0.227862 
1 1:0.21515 3:0.0132308 4:0.000570557 5:0.122327 
1 1:0.14814 2:0.0117935 3:0.095668 4:0.00155976 5:0.0844579 
1 1:0.283345 2:0.106316 3:0.00195895 4:3.53286e-06 5:0.0444565 
1 2:0.0147032 3:0.00133532 4:3.00293e-05 5:0.0416484 
1 1:0.690145 3:0.040494 4:0.000792244 5:0.302263 
1 1:0.0121675 3:0.0290015 4:0.000593521 5:0.0907123 
1 1:0.210324 2:0.671169 3:0.00188232 4:2.56132e-05 5:0.0968357 
1 2:0.247114 3:0.190827 4:0.0131996 5:0.107823 
1 2:0.112204 3:0.032694 4:0.00081874 5:0.0190095 
1 1:0.169053 3:0.0107289 4:0.000489301 5:0.189544 
1 1:0.193373 2:0.339504 3:0.00389571 4:8.30222e-05 5:0.0533444 
-1 1:0.034667 3:0.0626291 4:0.00305857 5:0.0259531 
1 1:0.456536 2:0.334164 3:0.191238 4:0.0040937 5:0.273343 
1 1:0.334434 2:0.115111 3:0.0526923 4:0.00182561 5:0.0364706 
1 1:0.217123 3:0.012859 4:0.000189008 5:0.106965 
1 1:0.338845 2:0.677109 3:0.019471 4:0.000468987 5:0.0355547 
1 1:0.283481 3:0.00544257 4:4.5044e-05 5:0.28999 
1 1:0.0381788 2:0.0796038 3:0.0996367 4:0.00376161 5:0.182028 
1 1:0.20514 2:0.0707524 3:0.0856435 4:0.00414051 5:0.200573 
1 2:0.288925 3:0.186835 4:0.00551303 5:0.289985 
1 2:0.247114 3:0.190827 4:0.0131996 5:0.107823 
1 1:0.022839 3:0.105049 4:0.00422442 5:0.042524 
1 1:0.380749 3:0.0028784 4:0.000240235 5:0.195269 
1 1:0.135073 2:0.553979 3:0.00279755 4:2.20804e-05 5:0.103495 
1 1:0.0417315 3:0.0259817 4:0.000458389 5:0.0665462 
1 2:0.0416737 3:0.0332815 4:0.0004999 5:0.142211 
1 1:0.210324 3:0.0875325 4:0.00518801 5:0.115965 
1 1:0.223903 2:0.9059 3:0.0102189 4:0.000267614 5:0.102285 
1 1:0.0323271 2:0.334095 3:0.00545769 4:0.000124533 5:0.228826 
1 1:0.0892631 2:0.0069963 3:0.0221384 4:0.000835521 5:0.0588827 
1 1:0.237135 2:0.553979 3:0.0715691 4:0.00304709 5:0.09237 
1 1:0.00570094 3:0.0714659 4:0.00281834 5:0.0224424 
1 1:0.0851375 3:0.023784 4:0.000527279 
1 1:0.0688673 2:0.216636 3:0.00733794 4:0.000125417 5:0.101945 
1 1:0.100995 3:0.0194558 4:0.000813441 5:0.268014 
-1 1:0.210237 2:0.409143 3:0.0247422 4:0.00106869 5:0.0536461 
1 1:0.217123 2:0.386822 3:0.00378883 4:7.24236e-05 5:0.475565 
1 2:0.336515 3:0.145781 4:0.00404336 5:0.182957 
1 1:0.119555 3:0.00335176 4:8.2139e-05 5:0.18681 
1 1:0.0659323 2:0.247505 3:0.0236492 4:0.00113846 5:0.0346651 
1 1:0.0156842 2:0.221377 3:0.079099 4:0.00664973 5:0.236447 
1 1:0.225077 2:0.138735 3:0.0323503 4:0.000317957 5:0.164875 
1 1:0.752376 2:0.14426 3:0.00507061 4:0.000102453 5:0.197067 
1 1:0.0803304 2:0.0151852 3:0.000692614 4:1.85475e-05 5:0.132049 
1 1:0.130595 3:0.0165662 4:0.000735718 5:0.140029 
1 1:0.607656 2:0.19675 3:0.066625 4:0.00141579 5:0.135414 
1 1:0.0756627 3:0.00945039 4:7.06572e-05 5:0.0846712 
1 1:0.0220384 2:0.095616 3:0.00492151 4:9.18544e-05 5:0.19393 
1 1:0.380749 2:0.0163763 3:0.00261378 4:1.32482e-05 5:0.141823 
1 1:0.216474 2:0.367561 3:0.00182129 4:3.62118e-05 5:0.0764552 
1 1:0.0902132 3:0.00480448 4:8.03726e-05 5:0.122561 
1 1:0.26863 2:0.371891 3:0.00743708 4:0.000315308 5:0.259216 
1 1:0.0339336 3:0.00764644 4:0.000201373 5:0.105734 
1 1:0.283481 2:0.225808 3:0.0599663 4:0.0020208 5:0.0800762 
1 2:0.0812977 3:0.117484 4:0.00200755 5:0.263914 
1 1:0.0484704 3:0.00285881 4:1.85475e-05 5:0.0215836 
1 1:0.283481 3:0.0755898 4:0.00164543 5:0.19791 
1 1:0.225077 2:6.8296e-05 3:0.0292607 4:0.00114111 5:0.105922 
1 1:0.0607663 3:0.0262525 4:0.00197752 5:0.105991 
1 1:0.048708 2:0.0441636 3:0.00200115 4:0.000138665 5:0.0332544 
-1 2:0.250966 3:0.0134503 4:0.000181942 5:0.0202412 
1 1:0.380749 3:0.0098771 4:0.000128066 5:0.0859247 
1 1:0.380749 2:0.198752 3:0.0266496 4:0.00072247 5:0.226126 
1 1:0.316587 3:0.00499987 4:0.000139548 5:0.275377 
-1 1:0.234235 2:0.253651 3:0.0346654 4:0.000704806 5:0.350426 
1 1:0.180954 3:0.0765461 4:0.00291108 5:0.195756 
1 1:0.0124124 2:0.387309 3:0.0158042 4:0.000874383 5:0.316992 
1 1:0.0109744 3:0.0299413 4:0.00103778 5:0.0884249 
1 1:0.0109744 2:0.135279 3:0.00401104 4:5.29929e-05 5:0.0322539 
-1 1:0.748463 3:0.0620076 4:0.00159685 5:0.03567 
1 2:0.2946 3:0.0328009 4:0.00183355 5:0.0990314 
1 2:0.264832 3:0.0960351 4:0.00490714 5:0.343695 
1 2:0.2946 3:0.0276743 4:0.00264346 5:0.0311035 
1 1:0.0902132 3:0.146017 4:0.0328141 5:0.153497 
1 1:0.14814 3:0.148478 4:0.00537171 5:0.0889254 
1 1:0.0121675 2:0.0117935 3:0.000936506 4:2.29636e-05 5:0.0859387 
-1 1:0.101812 2:0.183928 3:0.0172888 4:0.00294376 5:0.120789 
1 1:0.177079 3:0.00489357 4:6.53579e-05 5:0.16597 
1 1:0.177079 3:0.0124335 4:0.000203139 5:0.205188 
1 2:0.34883 3:0.0649212 4:0.00403099 5:0.0944805 
1 1:0.456536 3:0.00411454 4:3.53286e-05 5:0.15472 
-1 1:0.0381788 2:0.219997 3:0.00619688 4:0.000219921 5:0.0307323 
1 1:0.0562275 2:0.0714643 3:0.00967962 4:0.000234935 5:0.0779275 
1 1:0.0242814 3:0.101742 4:0.00330057 5:0.131692 
1 1:0.0785399 2:0.243362 3:0.0292028 4:0.00161452 5:0.0386332 
1 1:0.00837653 3:0.00314532 4:6.09418e-05 5:0.00813542 
1 2:0.131848 3:0.0454688 4:0.00295082 5:0.0370483 
1 1:0.180954 2:0.164099 3:0.0542979 4:0.00469076 5:0.147098 
1 1:0.0785399 2:0.243362 3:0.021104 4:0.000737485 5:0.0161074 
-1 1:0.0704396 2:0.469435 3:0.0437682 4:0.00200313 5:0.107826 
1 1:0.116105 2:0.108381 3:0.00136809 4:2.03139e-05 5:0.192937 
1 1:0.221544 2:0.514946 3:0.00902083 4:0.000136898 5:0.729509 
1 1:0.452823 2:0.339504 3:0.0477653 4:0.00213296 5:0.0456736 
1 1:0.248235 2:0.0147032 3:0.00515382 4:0.000246417 5:0.0212214 
1 1:0.0109327 2:0.0967989 3:0.00545448 4:8.12558e-05 5:0.126148 
1 1:0.0484704 3:0.00669086 4:7.06572e-06 5:0.0557063 
1 2:0.0918199 3:0.00704505 4:0.000183709 5:0.0524402 
1 1:0.283481 3:0.151825 4:0.0037572 5:0.304222 
-1 1:0.316587 3:0.00171734 4:3.53286e-05 5:0.151483 
1 1:0.0109744 2:0.502256 3:0.00367942 4:5.29929e-05 5:0.126123 
-1 1:0.210324 2:0.154219 3:0.00352668 4:6.88908e-05 5:0.58151 
1 1:0.380749 2:0.433388 3:0.0016297 4:2.73797e-05 5:0.232873 
1 1:0.0323271 2:0.0156593 3:0.00176156 4:1.94307e-05 5:0.232078 
1 1:0.77347 3:0.00580699 4:8.74383e-05 5:0.273888 
1 1:0.300445 2:0.0434432 3:0.0813836 4:0.00403276 5:0.102497 
1 1:0.130595 3:0.00187982 4:3.88615e-05 5:0.439283 
1 1:0.451793 2:6.53895e-06 3:0.0166013 4:0.000233169 5:0.133231 
1 1:0.221154 2:0.257308 3:0.00801964 4:9.00879e-05 5:0.187321 
1 1:0.130595 3:0.0065851 4:0.000107752 5:0.110357 
1 1:0.221154 2:0.148162 3:0.00357551 4:6.18251e-05 5:0.0874603 
1 1:0.134791 3:0.00221431 4:3.97447e-05 5:0.0498717 
1 1:0.0688673 3:0.0265489 4:0.000289695 5:0.110829 
1 1:0.130595 2:0.00305715 3:0.00114754 4:1.85475e-05 5:0.0489732 
1 1:0.277511 2:0.452469 3:0.0579997 4:0.00152355 5:0.573704 
1 1:0.0152953 2:0.28656 3:0.00289647 4:1.67811e-05 5:0.0758786 
1 1:0.111876 2:0.105322 3:0.0461044 4:0.000457505 5:0.142902 
1 1:0.0109744 3:0.00778736 4:0.000117468 5:0.146527 
1 1:0.0564073 2:0.152444 3:0.00295598 4:0.000116584 5:0.0618358 
1 1:0.0629097 3:0.00502321 4:0.000113052 5:0.0504008 
1 1:0.180954 2:0.0414152 3:0.07533 4:0.00421824 5:0.0262285 
1 1:0.0371142 2:0.0759652 3:0.0339866 4:0.00110579 5:0.0495806 
1 1:0.217123 3:0.0066543 4:0.000112168 5:0.103063 
1 1:0.130595 2:0.00235534 3:0.00352188 4:0.00024995 5:0.0515557 
1 1:0.456536 2:0.254058 3:0.00526793 4:8.83215e-05 5:0.233277 
1 1:0.456536 2:0.29153 3:0.0417318 4:0.000901763 5:0.475595 
1 1:0.0288486 2:0.225808 3:0.00417554 4:0.000158979 5:0.110881 
1 1:0.119555 3:0.0885242 4:0.00259842 5:0.165927 
1 2:0.10124 3:0.00592323 4:0.00047517 5:0.0505279 
1 1:0.0610077 2:0.00149535 3:0.0704028 4:0.00186623 5:0.0845509 
1 1:0.0389124 3:0.00218474 4:4.23943e-05 5:0.0418992 
1 1:0.0688673 3:0.00610187 4:0.000155446 5:0.0298131 
-1 1:0.111876 2:0.105322 3:0.0993344 4:0.00212767 5:0.0754106 
1 1:0.00339327 2:0.0229082 3:0.0902365 4:0.0125275 5:0.0660872 
-1 1:0.00258529 2:0.0153426 3:0.00778699 4:0.00072512 5:0.0237535 
1 1:0.748463 2:0.049978 3:0.0571397 4:0.00134779 5:0.0487039 
-1 1:0.244377 2:0.0379097 3:0.0013427 4:0.000232286 5:0.0116511 
1 1:0.0154144 2:0.228783 3:0.00435451 4:9.09712e-05 5:0.0636603 
1 1:0.126973 3:0.0378501 4:0.00116673 5:0.0184514 
-1 1:0.000176232 2:0.100947 3:0.000348181 4:1.76643e-06 5:0.010658 
1 1:0.118725 3:0.0246902 4:0.00422972 5:0.14299 
1 1:0.456536 2:0.104116 3:0.00431021 4:7.59565e-05 5:0.183432 
1 1:0.451793 3:0.00328 4:0.000131599 5:0.0225185 
-1 1:0.391255 2:0.257202 3:0.00569556 4:0.0032202 5:0.0313006 
1 2:0.0586925 3:0.00136789 4:2.91461e-05 5:0.0285076 
1 1:9.48604e-05 2:0.387309 3:0.00194221 4:3.17957e-05 5:0.170579 
1 1:0.0688673 2:0.0481112 3:0.0279633 4:0.00599703 5:0.0613057 
1 1:0.116105 2:0.38807 3:0.0029143 4:0.000110402 5:0.200677 
1 1:0.048537 2:0.0565526 3:0.0030379 5:0.0350592 
1 1:0.062094 3:0.0368474 4:0.00102188 5:0.0857332 
1 1:0.300445 3:0.0126439 4:0.000209322 5:0.072561 
1 1:0.505066 3:0.00582211 4:0.000209322 5:0.414552 
1 1:0.420918 3:0.0071727 4:9.89201e-05 5:0.717084 
1 1:0.156413 2:0.09683 3:0.00949045 4:0.000140431 5:0.648576 
1 1:0.210237 2:0.203863 3:0.0373542 4:0.00107487 5:0.0329213 
1 2:0.142655 3:0.0075672 4:0.000211972 5:0.0914272 
1 1:0.217123 3:0.0698907 4:0.00155711 5:0.101535 
1 1:0.0154451 2:0.0464382 3:0.00793961 4:0.000180176 5:0.128542 
1 1:0.740484 3:0.0366427 4:0.00118704 5:0.234372 
1 1:0.142817 3:0.00396332 4:5.29929e-05 5:0.0404358 
1 1:0.116105 2:0.34883 3:0.00550048 4:0.000143964 5:0.096024 
-1 1:0.0220384 2:0.112699 3:0.000960422 4:4.23943e-05 5:0.00967047 
1 1:0.188289 3:0.00876132 4:0.000239351 5:0.281889 
-1 2:0.240724 3:0.00117651 4:1.67811e-05 5:0.0122614 
-1 1:0.0851703 2:0.0357884 3:0.0224511 4:0.000682725 5:0.0823692 
1 1:0.184576 2:0.553979 3:0.00571325 4:9.36208e-05 5:0.236251 
1 1:0.221154 2:0.256163 3:0.0281878 4:0.00150765 5:0.0874519 
1 1:0.303393 3:0.0116137 4:0.000310892 5:0.0901626 
1 1:0.456536 2:0.346808 3:0.00359495 4:6.09418e-05 5:0.517176 
1 1:0.0496509 2:0.920449 3:0.00774852 4:0.000107752 5:0.178142 
1 1:0.77347 3:0.0368524 4:0.000701273 5:0.19293 
1 1:0.116105 2:0.152444 3:0.00266113 4:3.35622e-05 5:0.173485 
1 1:0.752376 2:0.14426 3:0.0125449 4:0.000272913 5:0.277993 
1 1:0.0484704 3:0.00398932 4:5.56426e-05 5:0.0432786 
1 1:0.0380132 2:0.0447593 3:0.0308817 4:0.00549978 5:0.00620178 
1 1:0.380749 2:0.0565526 3:0.00206537 4:3.17957e-05 5:0.106827 
1 1:0.141829 2:0.215026 3:0.00595637 4:5.56426e-05 5:0.0902936 
1 1:0.141829 2:0.215994 3:0.12994 4:0.0133807 5:0.0553726 
1 1:0.244377 2:0.124662 3:0.00495048 4:0.000204906 5:0.0187481 
1 2:0.1026 3:0.0204261 4:0.000782529 5:0.116517 
1 2:0.0272032 3:0.0030149 4:5.21097e-05 5:0.0590171 
1 2:0.108976 3:0.000421536 4:1.14818e-05 5:0.0491815 
1 1:0.0851703 3:0.0428708 4:0.00187065 5:0.0505648 
1 2:0.208428 3:0.00192638 4:5.03433e-05 5:0.0598641 
1 1:0.223115 2:0.570306 3:0.0752112 4:0.00166309 5:0.0831132 
1 1:0.0288486 3:0.000702348 4:7.50733e-05 5:0.0298976 
1 1:0.133358 2:0.216636 3:0.00132225 4:1.67811e-05 5:0.0698649 
1 1:0.101823 2:0.00739691 3:0.0582606 4:0.00126388 5:0.0346937 
1 2:1 3:0.031373 4:0.00124975 5:0.0960078 
1 1:0.0909532 3:0.000242853 4:1.76643e-06 5:0.0513659 
1 1:0.184576 3:0.0016259 4:6.62411e-05 5:0.0338461 
-1 1:0.0842815 2:0.0338547 3:0.0026172 4:2.82629e-05 5:0.0284611 
1 1:0.0902132 3:0.146017 4:0.0328141 5:0.153497 
1 1:0.130595 2:0.155632 3:0.0416516 4:0.00172757 5:0.065393 
1 1:0.210324 3:0.00068991 4:2.64965e-06 5:0.0855938 
1 1:0.102857 2:0.257202 3:0.0024954 4:1.50147e-05 5:0.0330148 
1 2:0.0732845 3:0.00236149 4:7.59565e-05 5:0.0831714 
1 1:0.113402 2:0.275357 3:0.121368 4:0.011019 5:0.158228 
1 1:0.119555 2:0.0117585 3:0.000704903 4:1.50147e-05 5:0.231604 
1 2:0.112204 3:0.0013168 4:3.53286e-05 5:0.077347 
1 1:0.283481 3:0.00614743 4:6.00586e-05 5:0.205534 
1 1:0.383716 2:0.38807 3:0.000720663 4:1.14818e-05 5:0.0846813 
1 1:0.216474 3:0.00405011 4:5.7409e-05 5:0.235192 
1 1:0.0725244 3:0.0179616 4:0.000742784 5:0.0511823 
1 1:0.141829 2:0.0334027 3:0.0634721 4:0.00175142 5:0.097016 
1 2:0.257817 3:0.018215 4:0.000877916 5:0.0828574 
1 1:0.221154 2:0.409143 3:0.0290745 4:0.00037625 5:0.0966767 
1 2:0.298968 3:0.0201467 4:0.000258782 5:0.0637314 
1 1:0.452823 2:0.22074 3:0.000375886 4:5.29929e-06 5:0.108707 
1 2:0.100947 3:0.00606236 4:7.94894e-05 5:0.0405209 
1 1:0.216474 2:0.216636 3:0.000817894 4:8.83215e-06 5:0.149244 
1 1:0.135073 2:0.114704 3:0.00305394 4:8.47887e-05 5:0.0383801 
1 2:0.131848 3:0.1709 4:0.00521362 5:0.199724 
1 1:0.117919 3:0.0120984 4:0.000242884 5:0.111114 
1 1:0.14814 2:0.383896 3:0.000823649 4:1.2365e-05 5:0.0476386 
1 1:0.130595 2:0.030795 3:0.000674497 4:2.38468e-05 5:0.0620603 
1 2:1.90635e-05 3:0.000195274 4:2.64965e-06 5:0.0684967 
1 1:0.0815806 2:0.400547 3:0.0153826 4:0.000280862 5:0.105652 
1 1:0.0407235 2:0.148381 3:0.0168318 4:0.000270264 5:0.0214498 
-1 1:0.177079 2:0.203189 3:0.0108975 4:0.000161628 5:0.0979683 
1 1:0.130595 3:0.014855 4:0.000790478 5:0.0354002 
-1 1:0.0214396 3:0.0252509 4:0.00140873 5:0.160117 
1 1:0.0205756 2:0.00840365 3:0.00143814 4:4.41608e-06 5:0.0444369 
1 1:0.244377 3:0.000287023 4:6.18251e-06 5:0.022794 
1 1:0.0018504 3:0.00191563 4:6.18251e-05 5:0.041841 
-1 1:0.154237 3:0.0268049 4:0.00165338 5:0.118439 
1 1:0.141829 3:0.01172 4:0.00129214 5:0.143197 
-1 1:0.050531 3:0.000462125 4:1.41314e-05 5:0.0176951 
1 1:0.0396172 2:0.273921 3:0.00734262 4:0.000152796 5:0.140416 
1 1:0.205771 3:0.00445823 4:0.000456622 5:0.120034 
1 1:0.0781566 2:0.570306 3:0.00948507 4:0.000103336 5:0.180788 
-1 1:0.130595 2:0.0719123 3:0.000497604 4:6.18251e-06 5:0.0572167 
1 1:0.0756627 2:0.198752 3:0.00192135 4:2.20804e-05 5:0.173426 
1 1:0.111876 2:0.105322 3:0.0814808 4:0.00145201 5:0.156705 
1 1:0.380749 2:0.142655 3:0.0563631 4:0.00100245 5:0.174949 
1 1:0.19269 2:0.172771 3:0.0368046 4:0.000919427 5:0.40853 
1 1:0.254783 2:0.0432883 3:0.016557 4:0.00037625 5:0.218978 
1 1:0.240538 2:0.0534598 3:0.00881494 4:0.000199607 5:0.125969 
1 1:0.116105 2:0.292034 3:0.000954498 4:7.06572e-06 5:0.0738274 
1 2:0.238793 3:0.0125324 4:7.77229e-05 5:0.0694848 
1 1:0.0868994 3:0.00137125 4:1.58979e-05 5:0.078021 
-1 1:0.116105 2:0.0883502 3:0.022623 4:0.000452206 5:0.0734612 
1 1:0.141829 2:0.0488948 3:0.00173948 4:6.18251e-06 5:0.0757705 
1 1:0.0380132 2:0.000496344 3:0.005245 4:0.000215504 5:0.0133911 
1 1:0.141829 2:0.215994 3:0.0347272 4:0.00125593 5:0.0630994 
1 1:0.25327 3:0.00337707 4:4.76936e-05 5:0.0967551 
1 1:0.20786 3:0.00319578 4:3.09125e-05 5:0.0526015 
1 1:0.456536 2:0.570306 3:0.0294673 4:0.000381549 5:0.471893 
1 1:0.126319 3:9.9113e-05 4:8.83215e-07 5:0.0286319 
1 1:0.141829 3:0.00493437 4:0.000242884 5:0.0417229 
1 1:0.0322869 2:0.232715 3:0.00250216 4:3.35622e-05 5:0.116377 
1 1:0.141829 3:0.0342855 4:0.000459272 5:0.100584 
1 1:0.022949 2:0.0255079 3:0.000595021 4:7.06572e-06 5:0.129728 
1 1:0.391255 3:0.00600364 4:8.65551e-05 5:0.0869223 
1 1:0.117919 3:0.00486842 4:5.03433e-05 5:0.0680914 
1 1:0.221154 2:0.38807 3:0.0146018 4:0.000329439 5:0.133148 
1 1:0.0909532 3:0.00415764 4:8.56719e-05 5:0.037696 
1 1:0.25957 2:0.00129335 3:0.0048464 4:9.53872e-05 5:0.0656208 
1 1:0.0825145 2:0.0593796 3:0.00235757 4:4.23943e-05 5:0.0381232 
1 1:0.0187252 3:0.00898274 4:0.000199607 5:0.0802385 
1 1:0.101812 3:0.000784792 4:1.50147e-05 5:0.0442309 
1 1:0.177079 2:0.478658 3:0.0229073 4:0.000580272 5:0.183671 
1 1:0.383716 3:0.000510388 4:1.32482e-05 5:0.0349786 
1 1:0.15692 2:0.216876 3:0.0157818 4:0.000809025 5:0.00950365 
1 1:0.283481 2:0.00423177 3:0.00371602 4:3.09125e-05 5:0.0264373 
1 1:0.176553 3:0.00375387 4:0.000162512 5:0.026102 
1 1:0.154587 3:0.000640942 4:1.58979e-05 5:0.0337078 
1 1:0.150262 2:0.00159074 3:0.00110841 4:1.94307e-05 5:0.0498661 
-1 1:0.00181226 2:0.0902797 3:0.00302144 4:6.44747e-05 5:0.0593575 
-1 2:0.0732845 3:0.00141959 4:3.17957e-05 5:0.0132892 
1 1:0.121108 2:0.221377 3:0.00108299 4:3.7095e-05 5:0.089226 
1 1:0.0558721 2:0.00344458 3:0.00230367 4:2.473e-05 5:0.0418752 
1 1:0.0909532 2:0.023794 3:0.00366169 4:6.9774e-05 5:0.0482494 
-1 1:0.141829 3:0.00142332 4:6.18251e-05 5:0.0462978 
1 1:0.109243 3:0.0247151 4:0.00082404 5:0.0566961 
1 1:0.20786 3:0.00522618 4:0.000114818 5:0.0999887 
1 1:0.116105 3:0.00881093 4:0.000159862 5:0.0865836 
1 1:0.0482767 2:0.284557 3:0.00263775 4:3.09125e-05 5:0.0260628 
-1 1:0.111876 3:0.00657526 4:0.000838171 5:0.0308577 
-1 1:0.143491 2:0.188692 3:0.0282144 4:0.00110843 5:0.00519129 
-1 1:0.121108 2:0.204965 3:0.00155241 4:0.000353286 5:0.0375074 
-1 1:0.118725 3:0.000631256 4:2.11972e-05 5:0.0143518 
-1 1:0.0851045 2:0.0542094 3:0.0263491 4:0.000570557 5:0.0213776 
-1 1:0.113402 3:0.00181794 4:3.53286e-05 5:0.0303522 
-1 1:0.232597 2:0.0140452 3:0.000529643 4:2.03139e-05 5:0.0323586 
1 2:0.00423177 3:0.00156181 4:3.17957e-05 5:0.0145337 
1 1:0.225077 3:0.0526451 4:0.00171697 5:0.0385845 
-1 1:0.0288486 3:0.00127733 4:3.00293e-05 5:0.0273297 
1 1:0.142817 3:0.00324887 4:4.946e-05 5:0.0149883 
1 1:0.0121675 2:0.0160217 3:0.0145269 4:0.00027468 5:0.00441928 
-1 1:0.000810994 3:0.00116155 4:7.94894e-05 5:0.00941407 
1 1:0.0515652 3:0.036561 4:0.00220804 5:0.049771 
-1 1:0.104833 2:0.00149535 3:0.000778904 4:0.000426593 5:0.000156752 
1 1:0.210324 2:0.148282 3:0.00462619 4:7.41901e-05 5:0.364797 
1 1:0.0479753 2:0.0127163 3:0.0252462 4:0.00480027 5:0.386708 
1 1:0.14814 2:0.608812 3:0.00876141 4:0.000223453 5:0.0396487 
1 1:0.303393 3:0.00456045 4:0.00017576 5:0.038238 
1 1:0.166087 2:0.206817 3:0.00139987 4:4.15111e-05 5:0.117938 
1 1:0.435824 3:0.003349 4:3.79782e-05 5:0.0388773 
1 1:0.141829 2:0.041758 3:0.00118344 4:0.000633265 5:0.035291 
1 1:0.113402 2:0.524367 3:0.0196623 4:0.000778996 5:0.111845 
1 1:0.210237 3:0.0208223 4:0.000568791 5:0.0214616 
-1 2:0.946255 3:0.0232 4:0.00089558 5:0.0371922 
-1 2:0.00012724 3:0.000694488 4:3.44454e-05 5:0.00956859 
1 1:0.158515 2:0.179509 3:0.108338 4:0.00330146 5:0.060813 
1 1:0.374307 2:0.00554682 3:0.000516253 4:1.94307e-05 5:0.0813486 
1 1:0.25327 3:0.145019 4:0.00870144 5:0.167889 
-1 1:0.452823 2:0.0966895 3:0.102039 4:0.00519595 5:0.249935 
1 1:0.101086 3:0.00438968 4:8.03726e-05 5:0.163863 
1 2:0.0488948 3:0.0118323 4:0.000371834 5:0.157175 
1 1:0.0266364 2:0.0309636 3:0.00789454 4:0.00015103 5:0.212096 
1 1:0.180954 2:0.0191878 3:0.303947 4:0.0190492 5:0.264722 
1 1:0.0407235 2:0.198752 3:0.00764557 4:0.000155446 5:0.173559 
1 1:0.374307 2:0.0134259 3:0.00200362 4:4.85768e-05 5:0.149779 
1 1:0.197781 2:0.109138 3:0.00169896 4:2.56132e-05 5:0.114082 
1 1:0.141829 3:0.0127858 4:0.000129833 5:0.154881 
1 1:0.121108 3:0.00323881 4:6.27083e-05 5:0.0570504 
1 1:0.0479753 2:0.021789 3:0.00260636 4:0.000105103 5:0.0212203 
1 1:0.223115 2:0.570306 3:0.0854334 4:0.00194926 5:0.270479 
1 1:0.141829 2:0.215994 3:0.0346621 4:0.00114995 5:0.105576 
1 1:0.119555 3:0.00249814 4:4.41608e-05 5:0.178946 
1 2:0.0806609 3:0.000802252 4:1.05986e-05 5:0.00948069 
1 1:0.0426854 3:0.000748447 4:1.32482e-05 5:0.0285238 
1 1:0.119555 3:0.00400957 4:6.53579e-05 5:0.0514365 
1 1:0.452823 2:0.164902 3:0.00676713 4:0.000108635 5:0.0773851 
1 1:0.277511 3:0.00166503 4:9.71537e-06 5:0.0327578 
1 1:0.121108 3:0.00523845 4:9.98033e-05 5:0.0339491 
1 1:0.21515 2:0.946255 3:0.0020295 4:3.09125e-05 5:0.101913 
1 1:0.116105 3:0.000961508 4:3.53286e-06 5:0.054328 
-1 1:0.0937595 3:0.00917137 4:0.000190774 5:0.0422323 
-1 1:0.278674 2:0.160447 3:0.0506895 4:0.000982135 5:0.110838 
-1 1:0.141829 3:0.00441444 4:6.00586e-05 5:0.0377498 
1 2:0.00899007 3:0.00377919 4:3.7095e-05 5:0.0425962 
1 1:0.116105 2:0.112699 3:0.000344426 4:1.32482e-05 5:0.0325943 
1 1:0.374307 2:0.0333308 3:0.0550027 4:0.00775993 5:0.0321386 
-1 2:0.116074 3:0.00187256 4:4.32775e-05 5:0.0178272 
1 1:0.278674 2:0.0737028 3:0.123155 4:0.00447613 5:0.0795258 
1 1:0.116105 2:0.0153116 3:0.000797655 4:1.05986e-05 5:0.053678 
-1 1:0.383716 2:0.000116051 3:0.000318649 4:3.53286e-06 5:0.0179459 
-1 1:0.110494 2:0.0254491 3:0.00872752 4:0.000203139 5:0.0253541 
-1 1:0.118725 3:0.000340647 4:1.14818e-05 5:0.00822724 
-1 1:0.0220384 2:0.524367 3:0.000700758 4:1.50147e-05 5:0.0260594 
1 1:0.116105 2:0.126175 3:0.0110508 4:0.000133365 5:0.146533 
1 2:0.232545 3:0.312956 4:0.013757 5:0.0876355 
1 1:0.0109744 2:0.124569 3:0.000240322 4:8.83215e-07 5:0.0368787 
-1 1:0.0650682 3:0.00128082 4:1.58979e-05 5:0.0476156 
1 1:0.0589982 2:0.125716 3:0.169287 4:0.0150526 5:0.030013 
1 1:0.283345 3:0.000519122 4:3.53286e-06 5:0.0345442 
1 1:0.141829 2:0.0687881 3:0.00983974 4:0.000212855 5:0.0575224 
1 1:0.277511 2:0.0780061 3:0.0100186 4:0.00282894 5:0.0584231 
1 1:0.0688673 2:0.14874 3:0.000858719 4:1.76643e-06 5:0.0762441 
1 1:0.244377 3:0.000605735 4:1.67811e-05 5:0.0196153 
1 1:0.0573558 2:0.0284598 3:0.00437685 4:4.946e-05 5:0.434843 
1 1:0.0781566 2:0.0197966 3:0.0132879 4:0.000703922 5:0.0829022 
1 1:0.0414444 3:0.00924401 4:0.000301176 5:0.149012 
-1 1:0.0756627 2:0.0524708 3:0.000855593 4:1.67811e-05 5:0.0258462 
-1 1:0.111876 3:0.000926261 4:1.58979e-05 5:0.0195878 
-1 1:0.00181226 2:0.000832242 3:0.0237821 4:0.00082139 5:0.00686126 
1 2:0.154219 3:0.000902023 4:1.14818e-05 5:0.112361 
-1 1:0.244377 2:0.0810422 3:0.000940497 4:3.09125e-05 5:0.0432187 
1 1:0.101812 2:0.154219 3:0.00998515 4:0.000699506 5:0.158577 
1 1:0.248235 2:0.298968 3:0.0101674 4:0.000245534 5:0.184451 
1 1:0.0428682 2:0.226085 3:0.130775 4:0.0135997 5:0.155776 
1 2:0.0333308 3:0.0248131 4:0.00079931 5:0.0433559 
1 1:0.225077 3:0.132772 4:0.00910418 5:0.0842973 
1 1:0.0417315 2:0.0947033 3:0.0481065 4:0.00327938 5:0.0205463 
1 1:0.101812 3:0.00759524 4:0.000257016 5:0.0572374 
1 1:0.177079 3:0.0113341 4:0.000333855 5:0.526674 
1 1:0.0650682 2:0.111271 3:0.0011566 4:1.85475e-05 5:0.106166 
1 1:0.0610077 2:0.00149535 3:0.0704028 4:0.00186623 5:0.0845509 
1 1:0.103136 2:0.236571 3:0.0329912 4:0.00097242 5:0.0687307 
1 1:0.380749 3:0.00979121 4:0.000174877 5:0.119083 
1 1:0.094092 3:0.0016233 4:7.50733e-05 5:0.0455112 
1 2:0.0014487 3:0.0150717 4:0.00035152 5:0.0836831 
1 1:0.111457 2:0.000496344 3:0.0217117 4:0.00101835 5:0.0184715 
1 1:0.101812 3:0.00215443 4:5.12265e-05 5:0.0605964 
1 1:0.170369 2:0.256158 3:0.0259083 4:0.00128419 5:0.119188 
1 1:0.0156842 3:0.00121625 4:1.50147e-05 5:0.0329834 
1 1:0.209384 2:0.220995 3:0.0244502 4:0.000463688 5:0.0885923 
1 1:0.316587 2:0.345063 3:0.00721605 4:1.58979e-05 5:0.201908 
1 1:0.20786 3:0.0296107 4:0.00106074 5:0.0251811 
1 1:0.0261145 2:0.0436481 3:0.0156239 4:0.000427476 5:0.0676905 
1 1:0.216474 2:0.346808 3:0.0018725 4:0.000166044 5:0.059601 
-1 1:0.121206 3:0.00241646 4:5.38761e-05 5:0.0760807 
1 1:0.0319682 2:0.348858 3:0.00645077 4:0.000114818 5:0.0483776 
1 1:0.295585 3:0.0424977 4:0.00144847 5:0.0816056 
1 1:0.221154 3:0.00636642 4:0.000170461 5:0.0334329 
1 1:0.389491 2:0.687382 3:0.00567546 4:1.2365e-05 5:0.122273 
1 1:0.177079 2:0.0533241 3:0.00094957 4:1.76643e-06 5:0.0561776 
1 1:0.126319 2:0.215994 3:0.0149748 4:0.000204906 5:0.0250865 
1 1:0.166087 2:0.0488948 3:0.0123772 4:0.000218154 5:0.0226837 
-1 1:0.154237 3:0.0512956 4:0.00140873 5:0.0506275 
-1 1:0.244377 2:0.0524446 3:0.0632187 4:0.00148998 5:0.0239181 
1 2:0.000184136 3:0.018464 4:0.000308242 5:0.0701286 
-1 1:0.116105 2:0.236571 3:0.000700471 4:1.05986e-05 5:0.0251173 
1 1:0.0860905 2:0.0325867 3:0.0237013 4:0.000246417 5:0.0608718 
-1 1:0.0291232 2:0.178 3:0.000963736 4:2.38468e-05 5:0.0126712 
-1 1:0.0417315 3:0.000631098 4:0.000114818 5:0.00951932 
-1 1:0.16246 2:5.468e-05 3:0.00206286 4:4.15111e-05 5:0.0155061 
-1 1:0.0399667 2:0.423373 3:0.00425423 4:0.000104219 5:0.0148668 
-1 1:0.15692 2:0.00825029 3:0.00516497 4:0.0012259 5:0.00293238 
-1 1:0.748463 3:0.0163576 4:0.000457505 5:0.0234596 
-1 2:0.14426 3:0.000757925 4:6.18251e-06 5:0.0414161 
1 1:0.111876 2:0.159769 3:0.0240692 4:0.000484002 5:0.10361 
-1 1:0.0422548 3:0.0913394 4:0.0107072 5:0.0259755 
1 1:0.401493 2:0.324804 3:0.00119355 4:2.03139e-05 5:0.0497486 
1 1:0.0341007 3:0.0876472 4:0.00403453 5:0.106811 
1 1:0.134791 2:0.206817 3:0.00349706 4:2.64965e-05 5:0.0585944 
1 1:0.25327 2:0.219997 3:0.151944 4:0.00941331 5:0.227291 
1 1:0.0403734 2:0.246889 3:0.00132858 4:2.473e-05 5:0.018565 
1 1:0.300445 2:0.215389 3:0.135702 4:0.00718849 5:0.0736124 
-1 2:0.0795143 3:0.00209127 4:3.09125e-05 5:0.0308857 
-1 2:0.0960849 3:0.000600744 4:1.94307e-05 5:0.0307642 
1 1:0.0428682 2:0.0721778 3:0.00722932 4:0.000110402 5:0.0594034 
-1 1:0.034133 2:0.257308 3:0.00369295 4:3.62118e-05 5:0.0772194 
1 1:0.456536 2:0.257308 3:0.00204258 4:3.88615e-05 5:0.101276 
1 1:0.0408521 2:0.201375 3:0.0295059 4:0.00124975 5:0.0740854 
1 1:0.374307 3:0.000668514 4:6.18251e-06 5:0.0510048 
1 1:0.00309178 3:0.0023637 4:4.76936e-05 5:0.0494267 
1 1:0.0738244 2:0.214839 3:0.0312363 4:0.00163218 5:0.0168548 
1 1:0.119555 2:0.0294176 3:0.00795571 4:0.000122767 5:0.522291 
1 1:0.0832173 2:0.201375 3:0.0398807 4:0.00212325 5:0.0793876 
1 1:0.101812 3:0.00219489 4:5.29929e-06 5:0.0923118 
1 1:0.197781 2:0.109138 3:0.0667307 4:0.00207997 5:0.192014 
1 1:0.16246 2:0.000141735 3:0.00288184 4:5.91754e-05 5:0.0435194 
1 1:0.0851045 3:0.0231738 4:0.000504316 5:0.114518 
1 1:0.0187252 2:0.423373 3:0.00287582 4:6.44747e-05 5:0.721695 
1 1:0.130595 3:0.0165662 4:0.000735718 5:0.140029 
1 1:0.0316338 3:0.000579776 4:1.50147e-05 5:0.0208144 
1 1:0.0688673 2:0.14874 3:0.00411082 4:5.56426e-05 5:0.122772 
1 2:0.0741534 3:0.00287661 4:3.2679e-05 5:0.0789005 
1 1:0.752376 2:0.0481112 3:0.0034394 4:4.15111e-05 5:0.157429 
1 1:0.0302743 2:0.47072 3:0.0444392 4:0.00144406 5:0.0628878 
1 1:0.192569 2:0.225808 3:0.000772811 4:1.94307e-05 5:0.0348571 
1 1:0.111876 2:0.139365 3:0.00310818 4:3.62118e-05 5:0.0558048 
1 1:0.121108 2:5.468e-05 3:0.00145575 4:3.17957e-05 5:0.0444985 
-1 1:0.00899364 3:0.0150562 4:0.000415994 5:0.0412476 
1 1:0.0109744 3:0.000639647 4:2.56132e-05 5:0.03872 
1 1:0.0864145 2:0.0302546 3:0.0953275 4:0.00368124 5:0.124595 
1 1:0.380749 3:0.0111253 4:0.000181059 5:0.132407 
1 1:0.282055 3:0.0195379 4:0.00195632 5:0.0178193 
1 1:0.452823 3:0.101264 4:0.00299587 5:0.0917782 
1 2:0.256163 3:0.00898354 4:0.000166928 5:0.0856576 
1 1:0.0403734 2:0.0192472 3:0.00118471 4:3.2679e-05 5:0.0776812 
-1 1:0.748463 2:0.154926 3:0.02775 4:0.00244827 5:0.0358956 
-1 1:0.121108 3:0.000324521 4:4.41608e-06 5:0.0136844 
1 1:0.0860905 3:0.00465501 4:0.00047252 5:0.0961102 
-1 2:0.126175 3:0.00327807 4:4.76936e-05 5:0.0348521 
-1 2:0.257308 3:0.000253944 4:5.29929e-06 5:0.0281359 
-1 1:0.00149072 2:0.336515 3:0.00613389 4:7.50733e-05 5:0.0398939 
1 1:0.169053 2:0.216636 3:0.0199479 4:0.000311775 5:0.798231 
-1 1:0.283345 2:0.160813 3:0.000715554 4:6.18251e-06 5:0.0273409 
-1 1:0.116105 2:0.00847024 3:0.00030196 4:1.67811e-05 5:0.0249269 
-1 1:0.121108 3:0.00109706 4:3.09125e-05 5:0.00491753 
-1 1:0.209384 3:0.0454984 4:0.00210647 5:0.038355 
-1 1:0.0073131 2:0.0880824 3:0.00125298 4:3.97447e-05 5:0.0147156 
-1 2:0.0336243 3:0.00429685 4:0.000108635 5:0.041233 
-1 1:0.0602448 3:0.0236909 4:0.000614718 5:0.0668441 
1 1:0.383716 3:0.000464943 4:1.14818e-05 5:0.00976788 
-1 1:0.21809 3:0.0410708 4:0.00104131 5:0.084379 
1 1:0.286724 3:0.00679394 4:5.21097e-05 5:0.11084 
1 1:0.248235 3:0.00109057 4:3.97447e-05 5:0.0941446 
-1 2:0.174721 3:0.00336527 4:0.000116584 5:0.0150191 
1 1:0.0154451 3:0.338801 4:0.0145068 5:0.367255 
-1 1:0.232597 2:0.0269616 3:0.000114286 4:2.64965e-06 5:0.0206129 
1 1:0.383716 2:0.242616 3:0.000142236 4:2.64965e-06 5:0.0402466 
1 1:0.112481 2:0.0238082 3:0.012831 4:0.00062355 5:0.00733935 
-1 1:0.0984923 2:0.066751 3:0.00850112 4:7.24236e-05 5:0.0229502 
1 1:0.0578331 3:0.000332342 4:2.64965e-05 5:0.0247914 
-1 2:0.0119111 3:0.00626623 4:0.000356819 5:0.0247679 
-1 1:0.110494 2:0.284557 3:0.000166911 4:7.06572e-06 5:0.0217337 
1 1:0.103136 2:0.135177 3:0.110859 4:0.00394709 5:0.186509 
1 1:0.0688673 2:0.0344383 3:0.00124644 4:1.76643e-06 5:0.0751989 
1 1:0.00975766 2:0.216021 3:0.0034371 4:9.89201e-05 5:0.0139812 
1 1:0.170369 3:0.0741151 4:0.00240941 5:0.353277 
1 1:0.134791 3:0.00140907 4:1.94307e-05 5:0.122212 
-1 2:0.104898 3:0.00108232 4:1.05986e-05 5:0.00639436 
1 1:0.119555 2:0.1026 3:0.0119067 4:0.000165161 5:0.469244 
1 1:0.0708653 2:0.0207658 3:0.001578 4:6.71243e-05 5:0.0376255 
1 1:0.309151 3:0.0287783 4:0.000701273 5:0.348794 
1 1:0.283481 3:0.0583584 4:0.0019678 5:0.240134 
1 1:0.0121675 2:0.204219 3:0.00158453 4:1.76643e-05 5:0.114579 
1 1:0.0756627 3:0.00392121 4:1.76643e-06 5:0.396422 
1 1:0.0288486 2:0.334163 3:0.00619158 4:8.74383e-05 5:0.0532553 
1 1:0.244377 2:0.0171424 3:0.00209065 4:5.82922e-05 5:0.0287309 
1 1:0.221154 2:0.367561 3:0.00581086 4:9.4504e-05 5:0.0919596 
1 1:0.300445 3:0.00578757 4:1.85475e-05 5:0.165332 
1 2:0.203866 3:0.00826803 4:9.00879e-05 5:0.0500022 
1 1:0.0486267 2:0.191975 3:0.0036051 4:6.00586e-05 5:0.0716675 
1 1:0.126319 2:0.228049 3:0.00545533 4:7.15404e-05 5:0.0479196 
1 1:0.380749 3:0.00453384 4:5.12265e-05 5:0.035239 
1 1:0.0825145 2:0.348545 3:0.00227412 4:4.15111e-05 5:0.0249292 
1 1:0.186735 2:0.0985014 3:0.0995244 4:0.00216653 5:0.0874026 
1 1:0.0109744 3:0.00755017 4:0.000383315 5:0.0497279 
1 1:0.116105 3:0.0143529 4:0.000317957 5:0.138913 
1 1:0.034133 3:0.00317061 4:3.88615e-05 5:0.0557348 
1 1:0.133358 3:0.00414899 4:4.5044e-05 5:0.0187123 
1 1:0.380749 2:0.339504 3:0.01431 4:0.000779879 5:0.169854 
1 1:0.14814 2:0.0201172 3:0.00447297 4:4.946e-05 5:0.0596794 
1 1:0.380749 3:0.0458761 4:0.00110579 5:0.137989 
1 1:0.000115854 3:0.0199053 4:0.00105721 5:0.0574832 
1 1:0.00115217 2:0.0341447 3:0.131142 4:0.0190527 5:0.0189586 
1 2:0.0680441 3:0.0437994 4:0.00134337 5:0.104082 
1 2:0.0244619 3:0.000883027 4:3.7095e-05 5:0.0136145 
1 1:0.300445 3:0.00290645 4:9.36208e-05 5:0.0944957 
1 1:0.221154 3:0.0109655 4:0.00012365 5:0.15557 
1 1:0.0316338 3:0.000701163 4:2.82629e-05 5:0.00858609 
1 2:0.0524446 3:0.000715935 4:2.11972e-05 5:0.0693017 
1 1:0.130595 2:0.0382027 3:0.00178313 4:3.7095e-05 5:0.0407331 
1 1:0.205771 2:0.0536565 3:0.00190985 4:4.76936e-05 5:0.141922 
-1 1:0.121108 2:0.106312 3:0.000912859 4:3.7095e-05 5:0.0133379 
1 1:0.0976695 2:0.0182968 3:0.0230737 4:0.000504316 5:0.0432702 
1 1:0.116105 2:0.0333308 3:0.00306732 4:4.32775e-05 5:0.0507451 
1 1:0.309151 2:0.256158 3:0.0020013 4:2.20804e-05 5:0.0515249 
1 1:0.0479753 2:0.0796038 3:0.00102509 4:1.32482e-05 5:0.0178456 
1 1:0.112481 3:0.000775928 4:4.41608e-06 5:0.0363396 
1 1:0.209388 3:0.0156829 4:0.000363885 5:0.057664 
1 2:0.164902 3:0.0687039 4:0.00354523 5:0.0525085 
1 1:0.0867111 2:0.0657702 3:0.0557399 4:0.0029994 5:0.0540318 
1 1:0.300445 3:0.00972287 4:0.00045044 5:0.149043 
1 1:0.17561 2:0.132967 3:0.0182152 4:0.000511382 5:0.0249073 
1 1:0.240806 3:0.170048 4:0.00800105 5:0.145235 
1 1:0.451793 2:0.346641 3:0.00566249 4:7.24236e-05 5:0.0620497 
1 1:0.0890775 2:0.125363 3:0.0185526 4:0.000340921 5:0.100477 
-1 1:0.0381788 2:0.026229 3:0.00463502 4:0.000144847 5:0.0438849 
1 1:0.16246 2:0.346808 3:0.00646445 4:9.71537e-05 5:0.0723948 
1 1:0.0266364 3:0.000408799 4:1.2365e-05 5:0.0237199 
-1 1:0.00599214 2:0.258548 3:0.000419096 4:9.71537e-06 5:0.00621129 
1 1:0.0578331 2:0.0419383 3:0.00128576 4:1.85475e-05 5:0.0240435 
-1 1:0.14814 3:0.00469242 4:0.000120117 5:0.0238263 
1 1:0.0156842 3:0.000571767 4:8.83215e-06 5:0.0341445 
1 1:0.216474 3:0.000807755 4:9.71537e-06 5:0.0440803 
1 1:0.101812 2:0.0828961 3:0.00589017 4:6.00586e-05 5:0.0436369 
-1 2:0.0294176 3:0.000319054 4:1.76643e-06 5:0.0111926 
-1 1:0.134791 2:0.253651 3:0.000922474 4:1.2365e-05 5:0.0399997 
1 1:0.134791 2:0.041758 3:0.00120412 4:6.18251e-06 5:0.0420767 
-1 1:0.116105 2:0.0147032 3:0.000767119 4:1.41314e-05 5:0.0312882 
-1 1:0.277511 2:0.920449 3:0.000859506 4:6.18251e-06 5:0.0252723 
-1 1:0.452823 2:0.346808 3:0.00192938 4:7.06572e-06 5:0.0262078 
-1 1:0.0547704 3:0.00256952 4:2.64965e-06 5:0.119482 
1 1:0.198314 2:0.126175 3:0.00566514 4:9.53872e-05 5:0.030879 
-1 1:0.548614 2:0.188692 3:0.0206363 4:0.00117821 5:0.0558082 
1 1:0.177079 3:0.00112717 5:0.0212533 
-1 1:0.346065 2:0.0188954 3:0.0521897 4:0.00158714 5:0.0707875 
1 1:0.752376 2:0.844316 3:0.586155 4:0.017349 5:0.581046 
-1 1:0.232597 3:0.000261155 4:1.2365e-05 5:0.0182135 
-1 1:9.48604e-05 3:0.00130546 4:3.09125e-05 5:0.0361744 
-1 2:0.0796875 3:0.00209291 4:3.97447e-05 5:0.020422 
-1 1:0.133358 2:0.0498947 3:0.00174639 4:1.58979e-05 5:0.0328854 
-1 1:0.185139 3:0.00515263 4:0.000412461 5:0.00837559 
-1 1:0.193373 2:0.0745376 3:0.0198047 4:0.000412461 5:0.0243626 
1 2:0.149991 3:0.0508461 4:0.00176113 5:0.0622826 
-1 1:0.244377 3:0.000950534 4:1.76643e-05 5:0.0183551 
-1 2:0.14874 3:0.000388962 4:1.67811e-05 5:0.0266954 
-1 1:0.00873027 3:0.000962551 4:2.11972e-05 5:0.0203822 
1 1:0.118725 3:0.0014978 4:2.473e-05 5:0.0349641 
-1 2:0.054293 3:0.00369042 4:0.000170461 5:0.0306814 
-1 1:0.217123 3:0.0339189 4:0.000861135 5:0.0284874 
-1 1:0.0860905 3:0.00679629 4:0.00069509 5:0.0219985 
-1 2:0.0325867 3:0.00245861 4:0.000393914 5:0.0129847 
-1 1:0.0827536 3:0.000530521 4:4.41608e-06 5:0.0105544 
1 1:0.334434 2:0.244397 3:0.16452 4:0.0173022 5:0.335693 
-1 1:0.244377 2:0.123667 3:0.000548957 4:4.41608e-06 5:0.00939336 
1 1:0.254783 2:0.113937 3:0.152447 4:0.00822273 5:0.194944 
1 1:0.0381788 2:0.0538883 3:0.0981532 4:0.00498222 5:0.0314702 
1 2:0.570306 3:0.000962216 4:7.06572e-06 5:0.0475983 
-1 1:0.0737947 2:0.00614823 3:0.000917314 4:2.91461e-05 5:0.00903899 
1 1:0.111876 2:0.0053258 3:0.0165829 4:0.000529046 5:0.053561 
-1 1:0.124921 2:0.235965 3:0.000154032 4:4.41608e-06 5:0.0157883 
1 1:0.16664 3:0.00196239 4:2.91461e-05 5:0.0170809 
1 1:0.126319 2:0.0524446 3:0.0223284 4:0.000605886 5:0.0920811 
-1 1:0.0337487 2:0.023794 3:0.0367942 4:0.0016472 5:0.0165228 
-1 1:0.141829 2:0.0334027 3:0.0274324 4:0.0018309 5:0.0411351 
1 1:0.0220384 2:0.0533241 3:0.00940247 4:0.000209322 5:0.0449856 
-1 1:0.0121675 3:0.00219216 4:2.56132e-05 5:0.0220113 
1 1:0.0109744 3:0.008375 4:0.000213738 5:0.0513301 
-1 2:0.0536565 3:0.000303519 4:5.29929e-06 5:0.0160564 
1 1:0.225077 3:0.00465896 4:6.18251e-06 5:0.0393358 
-1 1:0.0737596 2:0.123969 3:0.00113903 4:2.11972e-05 5:0.0309137 
1 1:0.119555 3:0.0198257 4:0.000329439 5:0.746882 
1 1:0.0380132 2:0.000496344 3:0.0198178 4:0.00348075 5:0.0334374 
1 1:0.134791 3:0.00255583 4:3.7095e-05 5:0.150616 
1 1:0.121412 2:0.22074 3:0.318246 4:0.0211186 5:0.0734937 
1 1:0.452823 3:0.00632665 4:0.000196074 5:0.141511 
1 1:0.118725 3:0.00187896 4:2.03139e-05 5:0.0326677 
1 1:0.115446 2:0.383896 3:0.00125122 4:6.18251e-06 5:0.0938418 
1 1:0.119555 3:0.0157494 4:0.000378016 5:0.19076 
1 1:0.25327 3:0.104906 4:0.00239086 5:0.0739108 
1 1:0.0319094 2:0.0907549 3:0.00274675 4:3.79782e-05 5:0.0507663 
1 1:0.221154 2:0.0719907 3:0.0493277 4:0.000693324 5:0.138089 
1 2:0.334163 3:0.00604596 4:6.27083e-05 5:0.0395507 
1 1:0.221154 2:0.22074 3:0.0319301 4:0.00114465 5:0.0470205 
1 1:0.452823 2:0.290109 3:0.00717505 4:7.68397e-05 5:0.198741 
1 2:0.0692894 3:0.0034955 4:5.82922e-05 5:0.0731298 
1 1:0.0578331 3:0.00153385 4:4.06279e-05 5:0.0213267 
1 1:0.0109744 3:0.00192561 4:2.91461e-05 5:0.054478 
1 1:0.0825145 2:0.298968 3:0.000553618 4:1.50147e-05 5:0.032694 
1 2:0.142042 3:0.000541172 4:5.29929e-06 5:0.0460296 
1 1:0.112481 2:0.0524446 3:0.000918101 4:8.83215e-07 5:0.0561502 
1 1:0.110494 2:0.00784725 3:9.88296e-05 4:8.83215e-07 5:0.0234943 
1 1:0.0756627 3:0.0245612 4:0.000533462 5:0.0395032 
1 1:0.151402 2:0.0276956 3:0.00117897 4:1.85475e-05 5:0.0504892 
1 1:0.0428682 2:0.246889 3:0.0101016 4:0.000538761 5:0.0105516 
1 2:0.0510539 3:0.000433715 4:6.18251e-06 5:0.016759 
1 1:0.134791 2:0.178 3:0.0688146 4:0.00171697 5:0.0834497 
-1 1:0.0578331 2:0.035293 3:0.00208375 4:0.000157212 5:0.0266377 
1 1:0.0374421 3:0.0289171 4:0.000787828 5:0.0300443 
1 2:0.154537 3:0.0507701 4:0.00854422 5:0.0600612 
-1 1:0.184576 2:0.259499 3:0.00167229 4:3.97447e-05 5:0.0207204 
-1 1:0.166087 2:0.023794 3:0.0266612 4:0.000444257 5:0.0156601 
1 1:0.283481 2:0.0165638 3:0.0202936 4:0.000264965 5:0.0255271 
-1 1:0.0688673 2:0.246889 3:0.00637079 4:0.000130716 5:0.0384675 
-1 1:0.16664 2:0.586815 3:0.00598035 4:0.00015103 5:0.0212505 
1 2:0.0439213 3:0.00182735 4:2.38468e-05 5:0.11465 
-1 1:0.0187252 2:0.198752 3:0.00261287 4:5.29929e-05 5:0.0233079 
-1 1:0.134791 2:0.0493924 3:0.180702 4:0.0218446 5:0.0221759 
-1 1:0.170369 3:0.000552685 4:1.58979e-05 5:0.0559504 
-1 2:0.00904993 3:0.000723902 4:7.94894e-06 5:0.00756832 
-1 1:0.018402 3:0.0066464 4:0.00054936 5:0.00515994 
-1 1:0.244377 2:0.102667 3:0.00825526 4:0.000381549 5:0.0060635 
1 1:0.0281696 2:0.192898 3:0.0279155 4:0.0015209 5:0.0143064 
-1 1:0.00402698 3:0.00683601 4:4.23943e-05 5:0.0063798 
1 2:0.0966366 3:0.000566618 4:8.83215e-06 5:0.0359331 
-1 1:0.0169898 3:0.00543246 4:0.000133365 5:0.039946 
-1 1:0.111876 2:0.0082763 3:7.96888e-05 4:3.53286e-06 5:0.0113757 
1 1:0.0403734 2:0.0192472 3:0.00364574 4:6.88908e-05 5:0.0924579 
1 1:0.452823 3:0.00284781 4:5.12265e-05 5:0.135816 
-1 1:0.111876 2:0.108075 3:0.0148788 4:0.00037625 5:0.0226618 
1 1:0.034133 3:0.00141886 4:8.83215e-07 5:0.158826 
-1 1:0.251114 3:0.00645516 4:8.2139e-05 5:0.0335225 
1 1:0.0428682 3:0.000545368 4:1.67811e-05 5:0.0392456 
1 1:0.180433 2:0.0301165 3:0.00624394 4:9.4504e-05 5:0.0448243 
-1 1:0.309151 2:0.0426551 3:0.00288494 4:0.000253483 5:0.0237076 
1 1:0.103136 3:0.000939049 4:1.76643e-06 5:0.0335628 
1 2:0.0238082 3:0.00541291 4:0.000128949 5:0.0509852 
1 2:0.387309 3:0.00118047 4:2.473e-05 5:0.128492 
-1 1:0.121108 2:0.0542589 3:0.000311926 4:4.41608e-06 5:0.0121695 
1 1:0.217123 2:0.15783 3:0.0672309 4:0.00186093 5:0.0741504 
1 1:0.0244933 2:0.00595189 3:0.0038078 4:0.0002473 5:0.0581398 
1 1:0.277511 2:0.208428 3:0.0149487 4:0.000152796 5:0.126882 
-1 1:0.110494 3:0.00322428 4:8.39054e-05 5:0.0888005 
-1 2:0.0179885 3:0.00111747 4:0.000253483 5:0.00346926 
-1 2:0.263212 3:0.0137507 4:0.000273797 5:0.0103893 
1 1:0.456536 2:0.146263 3:0.00737871 4:3.62118e-05 5:0.320675 
1 1:0.21809 2:0.000213767 3:0.0187552 4:0.00113581 5:0.125816 
1 1:0.126319 3:0.00213575 4:4.946e-05 5:0.0590809 
1 1:0.101332 2:0.383896 3:0.000637014 4:1.85475e-05 5:0.0379037 
1 1:0.0724852 2:0.161248 3:0.00151055 4:3.7095e-05 5:0.0803925 
-1 1:0.334434 2:0.228049 3:0.0104637 4:0.000178409 5:0.0788608 
-1 1:0.0756627 2:0.0215906 3:0.00193153 4:3.7095e-05 5:0.0578319 
1 1:0.134791 3:0.0034247 4:4.41608e-05 5:0.198064 
-1 1:0.121108 2:0.0348801 3:0.00234602 4:0.000181942 5:0.0560534 
-1 1:0.0948793 2:0.383896 3:0.00547208 4:0.000121 5:0.0240418 
-1 1:0.0756627 3:0.00637862 4:8.83215e-05 5:0.107344 
1 1:0.176553 3:0.000479998 4:2.03139e-05 5:0.0123476 
1 1:0.248235 2:0.298968 3:0.00515357 4:0.000166928 5:0.274516 
1 1:0.283481 3:0.0251476 4:0.000344454 5:0.115552 
1 1:0.232597 2:0.198752 3:0.000906793 4:2.473e-05 5:0.0842665 
1 1:0.380749 2:0.023794 3:0.00203595 4:3.53286e-06 5:0.110627 
1 1:0.300445 3:0.200672 4:0.00857249 5:0.274725 
1 1:0.20786 3:0.00253189 5:0.129735 
1 1:0.0909532 2:0.0767005 3:0.00298741 4:6.53579e-05 5:0.0466533 
1 1:0.0688673 2:0.309848 3:0.0284164 4:0.00149882 5:0.0769019 
1 1:0.141829 3:0.00402441 4:2.38468e-05 5:0.0642017 
1 1:0.00866245 3:0.00757995 4:0.000169577 5:0.166215 
1 2:0.038308 3:0.00150151 4:2.73797e-05 5:0.0785422 
1 2:0.346641 3:0.00885417 4:4.59272e-05 5:0.0922715 
1 1:0.238297 2:0.245152 3:0.033837 4:0.00218507 5:0.15339 
1 1:0.177079 2:5.468e-05 3:0.00343583 4:6.80076e-05 5:0.139422 
1 1:0.0756627 3:0.00370715 4:7.86061e-05 5:0.156981 
1 1:0.14814 2:0.256395 3:0.0914433 4:0.00237762 5:0.0503308 
1 2:0.258287 3:0.0565854 4:0.00149705 5:0.0607951 
1 1:0.221154 2:0.0325867 3:0.00356122 4:3.00293e-05 5:0.158073 
-1 1:0.101812 2:0.202429 3:0.00235003 4:1.2365e-05 5:0.0643204 
1 2:0.0193662 3:0.0939013 4:0.00493364 5:0.0200027 
1 1:0.0109744 2:0.114151 3:0.0132242 4:0.000287045 5:0.107905 
1 1:0.283345 3:0.00575087 4:9.00879e-05 5:0.033845 
1 1:0.25327 2:0.158704 3:0.0163983 4:0.000240235 5:0.219781 
1 1:0.0126344 3:0.0201183 4:0.00106869 5:0.0348935 
1 1:0.0316338 3:0.00249542 4:7.15404e-05 5:0.0169729 
1 1:0.177079 2:0.29153 3:0.00176615 4:2.91461e-05 5:0.164889 
1 1:0.0650682 3:0.031952 4:0.000867317 5:0.0522269 
1 1:0.0124124 3:0.0395137 4:0.000836405 5:0.117726 
1 1:0.14814 3:0.00555472 4:7.59565e-05 5:0.0251464 
1 2:0.564433 3:0.0167154 4:0.000531695 5:0.463307 
1 1:0.112481 2:0.0524446 3:0.000882394 5:0.0474572 
1 2:0.0842515 3:0.0106122 4:4.41608e-05 5:0.00738302 
1 2:0.294272 3:0.00179909 4:4.06279e-05 5:0.0211856 
-1 1:0.0578331 2:0.204219 3:0.0020286 4:1.94307e-05 5:0.0232038 
-1 1:0.607656 3:0.0359805 4:0.00132482 5:0.0929136 
1 2:0.456493 3:0.16482 4:0.00651106 5:0.0367057 
1 1:0.0952757 2:0.108381 3:0.0563476 4:0.00154563 5:0.112595 
1 1:0.0324921 2:0.264832 3:0.000739067 4:1.14818e-05 5:0.0629264 
-1 1:0.124921 2:0.179592 3:0.0480772 4:0.0022575 5:0.0411966 
1 1:0.201569 3:0.0102279 4:0.000428359 5:0.0277479 
1 1:0.383716 3:0.000958721 4:1.2365e-05 5:0.0285479 
-1 1:0.192569 2:0.22074 3:0.000432597 4:7.06572e-06 5:0.0228516 
-1 1:0.0578331 2:0.108976 3:0.0587204 4:0.00627436 5:0.154138 
1 2:0.204219 3:0.0271638 4:0.000842587 5:0.100662 
-1 1:0.0187252 2:0.22074 3:0.000518052 4:7.94894e-06 5:0.0278481 
1 1:0.115446 3:0.0187162 4:0.000401863 5:0.0988713 
-1 1:0.103136 2:0.0436275 3:0.00188863 4:2.91461e-05 5:0.0620973 
1 1:0.572777 3:0.0341333 4:0.00139901 5:0.0312888 
1 1:0.244377 2:0.0293045 3:0.000879115 4:4.41608e-06 5:0.0353045 
1 1:0.752376 2:0.106312 3:0.0239148 4:0.000574973 5:0.0810693 
-1 1:0.216474 3:0.00110135 4:5.29929e-06 5:0.0266366 
-1 1:0.221154 3:0.0523011 4:0.000787828 5:0.0266344 
-1 1:0.00641435 2:0.608812 3:0.000222657 4:7.06572e-06 5:0.01048 
-1 1:0.456536 2:0.0141517 3:0.00241273 4:4.41608e-05 5:0.103149 
-1 2:0.0301285 3:0.000298603 4:3.53286e-06 5:0.0177734 
-1 1:0.0313713 2:0.0984418 3:0.058094 4:0.00368919 5:0.0334217 
-1 1:0.232597 3:0.0328961 4:0.00524895 5:0.0149782 
1 1:0.0428682 3:0.00721202 4:0.000491068 5:0.00656343 
1 2:0.0766261 3:0.00629263 4:8.74383e-05 5:0.0459893 
-1 2:0.152169 3:0.00175618 4:1.58979e-05 5:0.0252035 
1 1:0.0836012 2:0.0966366 3:0.00373051 4:0.000477819 5:0.0499887 
-1 1:0.116105 3:0.000871829 4:2.38468e-05 5:0.010555 
1 2:0.0317207 3:0.0238729 4:0.00117821 5:0.0536607 
-1 1:0.121108 3:0.000438186 4:1.2365e-05 5:0.028699 
-1 1:0.192569 2:0.258548 3:0.000134073 4:2.64965e-06 5:0.0199523 
-1 1:0.0266364 3:0.0238539 4:0.00183444 5:0.045649 
-1 2:0.03726 3:0.00212678 4:0.000102453 5:0.0750724 
-1 1:0.190427 2:0.0524446 3:0.00319183 4:6.35915e-05 5:0.0815267 
-1 1:0.283345 3:0.0328231 4:0.000958288 5:0.0155655 
-1 1:0.184576 2:0.0599686 3:0.00125275 4:1.76643e-05 5:0.0113108 
1 1:0.0124124 2:0.148282 3:0.0344798 4:0.000646513 5:0.0454099 
-1 1:0.020608 2:0.0376308 3:0.00130985 4:7.06572e-06 5:0.11 
-1 1:0.113402 3:0.013282 4:0.000174877 5:0.0365238 
-1 1:0.0634102 3:8.71278e-05 4:8.83215e-07 5:0.0320451 
-1 1:0.0891909 3:0.00244249 4:5.29929e-05 5:0.048789 
-1 1:0.77347 3:0.0162323 4:0.000311775 5:0.0270447 
-1 1:0.121108 2:0.0796038 3:0.000876635 4:1.76643e-05 5:0.00947453 
-1 2:0.38807 3:0.00295768 4:8.30222e-05 5:0.0069262 
-1 2:0.0737028 3:0.00117131 4:5.82922e-05 5:0.0330954 
-1 1:0.0119747 3:0.000187918 4:4.41608e-06 5:0.00532901 
-1 1:0.170369 3:0.0203006 4:0.000538761 5:0.0649272 
-1 1:0.0309839 3:0.0182565 4:0.000819624 5:0.0398447 
-1 1:0.0909532 2:0.206817 3:0.000913036 5:0.0197966 
-1 1:6.90735e-06 2:0.0044504 3:0.0250542 4:0.00170107 5:0.0263265 
-1 1:0.0428682 2:0.0261383 3:0.000422052 4:7.94894e-06 5:0.0090569 
-1 1:0.238709 3:0.000260522 4:8.83215e-06 5:0.00458947 
-1 1:0.0109744 3:0.0282024 4:0.00115083 5:0.0469758 
-1 2:0.035629 3:0.0120419 4:0.000779879 5:0.011346 
1 1:0.151402 3:0.0535184 4:0.00301883 5:0.0451798 
-1 1:0.0384052 2:0.0439259 3:0.00114786 4:2.91461e-05 5:0.00825299 
1 1:0.212115 2:0.0210115 3:0.0115966 4:0.000291461 5:0.0977774 
1 1:0.383716 2:0.457923 3:0.00145924 4:1.76643e-06 5:0.304627 
1 1:0.172822 2:0.230649 3:0.0833537 4:0.00256397 5:0.103792 
1 1:0.221154 3:0.00332533 4:4.59272e-05 5:0.0700552 
1 1:2.37369e-06 3:0.010031 4:0.000441608 5:0.000721619 
1 1:0.216474 2:0.367561 3:0.00316698 4:4.946e-05 5:0.0793053 
-1 1:0.150734 2:0.0525815 3:0.0229695 4:0.00077458 5:0.0260818 
1 1:0.0126344 3:0.000467017 4:1.58979e-05 5:0.053533 
-1 1:0.0356611 2:0.257202 3:0.00215969 4:4.32775e-05 5:0.0863944 
-1 2:0.221377 3:0.00271281 4:2.64965e-05 5:0.0376406 
1 1:0.118725 3:0.00340155 4:6.44747e-05 5:0.0471487 
-1 1:0.0272446 2:4.75699e-05 3:0.000337821 4:6.18251e-06 5:0.00733935 
-1 1:0.210324 2:0.552719 3:0.00108756 4:1.41314e-05 5:0.137826 
1 1:0.216474 3:0.000675449 4:7.94894e-06 5:0.0412 
1 1:0.0756627 2:0.0586925 3:0.00297909 4:5.65258e-05 5:0.0708328 
1 1:0.0647005 2:0.181711 3:0.000829415 4:1.76643e-05 5:0.0274842 
-1 1:0.0121675 3:0.000339356 5:0.0420778 
-1 2:0.106316 3:0.000865579 4:2.473e-05 5:0.0129891 
1 1:0.111876 2:0.0053258 3:0.00865443 4:0.000180176 5:0.100532 
-1 1:0.216474 3:0.00371255 4:0.000129833 5:0.038739 
1 1:0.109316 3:0.000925678 4:4.15111e-05 5:0.00494776 
-1 2:0.0883502 3:0.000953679 4:1.05986e-05 5:0.00683718 
1 2:0.253651 3:0.00231622 4:3.79782e-05 5:0.0273387 
1 1:0.034133 2:0.0560525 3:0.00208858 4:3.97447e-05 5:0.127349 
1 1:0.0156842 3:0.000534839 4:3.53286e-06 5:0.0565079 
-1 1:0.397823 2:0.0883502 3:0.00229397 4:0.000112168 5:0.026369 
1 1:0.221154 3:0.00161342 4:1.14818e-05 5:0.0234652 
1 1:0.0756627 3:0.00762578 4:0.000335622 5:0.129087 
-1 1:0.0891335 3:0.0152709 4:0.000298527 5:0.0227178 
-1 1:0.0076666 3:0.000944685 4:4.15111e-05 5:0.000287192 
1 1:0.234235 3:0.00184048 4:6.9774e-05 5:0.0350783 
1 1:0.0124124 3:0.065188 4:0.00149528 5:0.138744 
1 2:0.608812 3:0.00552971 4:8.47887e-05 5:0.081015 
1 1:0.118725 2:0.336515 3:0.00244781 4:6.71243e-05 5:0.0503039 
1 2:0.270557 3:0.00184103 4:2.11972e-05 5:0.0347446 
1 2:0.225808 3:0.000298898 4:4.41608e-06 5:0.0266691 
1 1:0.20786 2:0.198752 3:0.018142 4:0.000602353 5:0.107628 
1 1:0.383716 3:0.00212972 4:0.00035152 5:0.0471437 
1 1:0.180954 2:0.095616 3:0.0939587 4:0.00328998 5:0.236633 
1 1:0.221154 2:0.00289291 3:0.00315977 4:0.000236702 5:0.179131 
1 1:0.0316338 3:0.033396 4:0.00134602 5:0.0712712 
1 1:0.179826 3:0.0361401 4:0.00128949 5:0.0431309 
1 1:0.0403734 2:0.0443528 3:0.0152489 4:0.000454856 5:0.111612 
1 1:0.103136 2:0.283762 3:0.007933 4:5.7409e-05 5:0.0541511 
1 1:0.309151 2:0.126175 3:0.00111561 4:1.32482e-05 5:0.0331262 
1 2:0.0719952 3:0.0133803 4:0.00106162 5:0.0428711 
1 2:0.00311221 3:0.00229922 4:8.83215e-06 5:0.0520875 
1 1:0.0253016 2:0.0436674 3:0.00277288 4:3.53286e-05 5:0.188272 
1 1:0.217123 3:0.00259995 4:8.56719e-05 5:0.0721607 
-1 1:0.111876 3:0.00320363 4:7.86061e-05 5:0.0291077 
1 1:0.232597 3:0.000213596 5:0.0218814 
-1 1:0.0688673 2:0.106312 3:0.00110754 4:1.67811e-05 5:0.0172634 
-1 1:0.0220256 3:0.00898361 4:0.000187242 5:0.0902376 
-1 1:0.0835275 3:0.00202791 4:6.80076e-05 5:0.00535924 
1 2:0.0351707 3:0.0034021 4:9.27376e-05 5:0.0879031 
1 1:0.141829 3:0.0447085 4:0.00205524 5:0.0517444 
-1 2:0.0560421 3:0.00309358 4:3.62118e-05 5:0.0124847 
1 2:0.0931125 3:0.00180157 4:1.85475e-05 5:0.0189743 
-1 1:0.0296667 2:0.0238033 3:0.000836386 4:2.73797e-05 5:0.0120565 
1 2:0.13824 3:0.00358812 4:0.000113052 5:0.0600298 
1 1:0.111994 3:0.0085428 4:0.000113052 5:0.0662316 
-1 2:0.0134259 3:0.000780384 4:3.62118e-05 5:0.0173345 
-1 2:0.0379986 3:0.00286888 4:7.86061e-05 5:0.0529435 
1 2:0.558522 3:0.010862 4:7.59565e-05 5:0.0887171 
-1 1:0.116105 2:0.0397675 3:0.000980491 4:2.64965e-05 5:0.0643427 
-1 1:0.225077 3:0.00172354 4:4.41608e-05 5:0.0468823 
-1 1:0.00641435 2:0.0519376 3:0.000469465 4:7.06572e-06 5:0.00889287 
-1 1:0.240538 3:0.000646528 4:1.05986e-05 5:0.0142801 
-1 1:0.00274675 2:0.0103772 3:0.00697295 4:0.000323257 5:0.00967999 
-1 2:0.00778688 3:0.0013765 4:1.76643e-05 5:0.0246017 
-1 1:0.154237 3:0.0268049 4:0.00165338 5:0.118439 
-1 1:1.10198e-05 3:0.0145758 4:0.000301176 5:0.0158448 
-1 1:0.283481 2:0.0473342 3:0.00122306 4:3.2679e-05 5:0.00651472 
-1 1:0.166087 3:0.00678105 4:0.000709222 5:0.0138014 
1 1:0.316587 3:0.000262112 4:6.18251e-06 5:0.0763326 
-1 1:0.00373774 3:0.00057675 4:3.53286e-06 5:0.0153018 
-1 1:0.0674051 2:0.0695346 3:0.00106077 4:1.85475e-05 5:0.00895109 
1 1:0.0948793 3:0.00122337 4:2.56132e-05 5:0.0208463 
-1 1:0.0109744 2:0.0352957 3:0.000707992 4:6.18251e-06 5:0.0276174 
-1 1:0.0316338 3:0.00316292 4:0.000125417 5:0.00990448 
-1 1:0.0827536 3:0.00142005 4:2.20804e-05 5:0.0109984 
-1 1:0.0730288 2:0.230398 3:1.14263e-05 5:0.0021671 
1 1:0.043586 2:0.0521816 3:0.00820113 4:0.000116584 5:0.0519168 
-1 1:0.0730288 3:0.00424648 4:0.00705954 5:0.00294414 
1 1:0.309151 2:0.109045 3:0.00504869 4:0.000290578 5:0.264889 
1 1:0.383716 2:0.225808 3:0.00115531 4:1.94307e-05 5:0.123433 
1 1:0.170369 3:0.0071956 4:0.000471637 5:0.0562627 
1 1:0.022236 2:0.0670055 3:0.00843158 4:0.000410695 5:0.0891711 
1 1:0.111876 2:0.0053258 3:0.0216036 4:0.000562608 5:0.0685555 
-1 2:0.0147032 3:0.0011994 4:2.03139e-05 5:0.00807104 
-1 1:0.0438232 2:0.00794499 3:0.00205753 4:6.88908e-05 5:0.0535543 
1 2:0.063388 3:0.0114924 4:0.00030206 5:0.0918908 
-1 1:0.0323271 3:0.0428306 4:0.00177526 5:0.0203503 
1 1:0.374307 2:0.283762 3:0.00167046 4:1.14818e-05 5:0.0417111 
-1 1:0.151402 2:0.198752 3:0.004778 4:0.000144847 5:0.0491608 
-1 2:0.16012 3:0.00429449 5:0.0264748 
1 1:0.380749 3:0.00145651 4:1.05986e-05 5:0.0518647 
-1 1:0.111106 2:0.0335818 3:0.0353535 4:0.000712755 5:0.0277042 
1 1:0.0860905 2:0.148108 3:0.0408696 4:0.000998033 5:0.0711922 
1 1:0.238297 2:0.245152 3:0.00926544 4:0.000513148 5:0.238996 
1 2:0.203866 3:0.00352893 4:4.06279e-05 5:0.119693 
1 1:0.000982974 3:0.000647697 4:2.11972e-05 5:0.0818413 
1 2:0.00381886 3:0.00124998 4:1.85475e-05 5:0.0125564 
1 1:0.176553 3:0.0194837 4:0.000451323 5:0.0426264 
1 2:0.198752 3:0.000651412 4:1.14818e-05 5:0.0175708 
-1 2:0.257202 3:0.00131636 4:1.67811e-05 5:0.00663956 
-1 1:0.0272446 2:0.0027869 3:0.00100216 4:2.20804e-05 5:0.0367001 
1 1:0.0881564 3:0.000982412 4:1.41314e-05 5:0.0429685 
1 2:0.38807 3:0.0583949 4:0.00364061 5:0.0528629 
-1 1:0.134791 2:0.0498014 3:0.000920805 4:1.41314e-05 5:0.0243329 
-1 1:0.0109744 3:0.00662402 4:9.80369e-05 5:0.142435 
1 1:0.151402 3:0.0335155 4:0.00496279 5:0.0859135 
-1 2:0.00646735 3:0.0112846 4:5.21097e-05 5:0.0198224 
-1 2:0.0687881 3:0.0461269 4:0.00192364 5:0.144657 
-1 1:0.00967164 3:0.012924 4:0.000237585 5:0.0127938 
-1 1:0.0136277 3:0.0013268 4:1.50147e-05 5:0.0142023 
1 1:0.0338334 3:0.0194965 4:0.000391264 5:0.11082 
-1 1:0.150343 2:0.108898 3:0.000607651 4:8.83215e-07 5:0.0793697 
-1 1:0.112481 2:0.0454211 3:0.0028063 4:4.946e-05 5:0.0174969 
1 1:0.116105 2:0.0108763 3:0.0102325 4:0.000174877 5:0.412576 
-1 1:0.0803304 3:0.000881764 4:2.91461e-05 5:0.0718736 
-1 1:0.10208 2:0.0467075 3:0.0081997 4:0.000162512 5:0.0200911 
1 1:0.00313197 2:0.0212691 3:0.0826487 4:0.00248625 5:0.0752779 
1 1:0.451793 2:0.311698 3:0.0404179 4:0.000915894 5:0.208966 
1 2:0.409143 3:0.00284519 4:2.82629e-05 5:0.133642 
1 1:0.184576 3:0.000965113 4:1.94307e-05 5:0.0328289 
1 1:0.0484704 2:0.00733072 3:0.0586411 4:0.0172192 5:0.202269 
1 2:0.198752 3:0.0246156 4:0.000693324 5:0.19454 
1 2:0.173903 3:0.451561 4:0.0373176 5:0.134546 
1 1:0.283345 3:0.00249831 4:3.97447e-05 5:0.0585642 
1 1:0.0825145 3:0.00336523 4:5.38761e-05 5:0.043848 
1 1:0.300445 2:0.13824 3:0.0757457 4:0.0030153 5:0.120915 
1 1:0.119555 3:0.00181468 4:3.53286e-05 5:0.0417912 
1 1:0.106159 3:0.124817 4:0.0045777 5:0.0727111 
1 1:0.223115 3:0.0427905 4:0.00110137 5:0.282666 
1 2:0.0141053 3:0.0159234 4:0.000146614 5:0.0761691 
1 1:0.0484704 2:0.00733072 3:0.00268068 4:2.91461e-05 5:0.169326 
1 1:0.0688673 2:0.256395 3:0.0678399 4:0.00213031 5:0.0516514 
1 1:0.174792 2:0.469435 3:0.0124014 4:0.000279979 5:0.0385134 
1 1:0.0756627 2:0.258548 3:0.129436 4:0.00504316 5:0.0577082 
1 1:0.113402 2:0.000684415 3:0.00401669 4:6.00586e-05 5:0.0285764 
1 1:0.134791 3:0.0610284 4:0.00185387 5:0.0873321 
1 1:0.0851045 3:0.00152567 4:3.44454e-05 5:0.0664443 
1 1:0.277511 3:0.0452818 4:0.00233875 5:0.0638322 
1 1:0.0220384 2:0.160813 3:0.00380467 4:7.33069e-05 5:0.0730777 
1 1:0.20514 3:0.00542733 4:7.06572e-06 5:0.0958493 
1 2:0.0467075 3:0.00262397 4:5.82922e-05 5:0.0629432 
1 2:0.13036 3:0.0209786 4:0.000961821 5:0.066179 
1 1:0.135073 3:0.00443298 4:0.000168694 5:0.0186104 
1 1:0.177079 3:0.0101194 4:0.00112433 5:0.0503577 
1 1:0.0302743 2:0.47072 3:0.0444392 4:0.00144406 5:0.0628878 
1 1:0.111106 3:0.00830205 4:0.000128066 5:0.0846975 
1 1:0.000193559 3:0.00401997 4:9.00879e-05 5:0.0439135 
1 1:0.034667 2:0.0818944 3:0.0308099 4:0.000604119 5:0.119509 
-1 1:0.0428682 2:0.22074 3:0.00180035 4:7.50733e-05 5:0.0498678 
-1 1:0.0272446 3:0.00153763 4:3.53286e-05 5:0.0206347 
1 1:0.000405712 2:0.0199923 3:0.00532091 4:0.000116584 5:0.0445836 
1 1:0.00652479 2:0.109138 3:0.0123544 4:0.000910595 5:0.0304496 
1 1:0.131804 2:0.0022171 3:0.00254498 4:8.83215e-06 5:0.060747 
1 1:0.283345 3:0.0225884 4:0.000121884 5:0.100578 
1 1:0.0124124 3:0.0155735 4:0.000586455 5:0.121304 
1 1:0.180954 2:0.552719 3:0.00200404 4:1.76643e-05 5:0.499507 
-1 1:0.186408 2:0.0721778 3:0.025993 4:0.000468104 5:0.068879 
1 1:0.118725 2:0.0396704 3:0.00199907 4:8.83215e-05 5:0.0119619 
1 1:0.0358757 3:0.0105071 4:0.000250833 5:0.137462 
1 1:0.0881564 3:0.000476905 4:7.94894e-06 5:0.0403726 
1 1:0.0520191 2:0.106725 3:0.0285129 4:0.000513148 5:0.0992777 
-1 1:0.133358 3:6.25749e-05 4:4.41608e-06 5:0.00452061 
1 1:0.217123 2:0.215026 3:0.00331578 4:6.18251e-06 5:0.0853425 
1 1:0.0187252 3:0.00472134 4:5.65258e-05 5:0.0659383 
-1 2:0.15783 3:0.0115875 4:0.000439841 5:0.021807 
1 1:0.21074 3:0.00277889 4:1.76643e-05 5:0.0314635 
1 1:0.0130193 2:0.0432312 3:0.00848605 4:0.000165161 5:0.015023 
-1 1:0.283481 2:0.0534598 3:0.00102314 4:4.41608e-06 5:0.0270643 
1 2:0.920449 3:0.00231881 4:4.946e-05 5:0.0514628 
-1 1:0.16246 2:0.0212191 3:0.00161838 4:6.18251e-06 5:0.032961 
-1 1:0.374307 3:0.00045402 4:5.29929e-06 5:0.0100433 
-1 1:0.00594689 3:0.00242245 4:8.92047e-05 5:0.0537178 
1 1:0.0272446 3:0.000769536 4:1.41314e-05 5:0.0116758 
1 2:0.532313 3:0.00371095 4:5.29929e-05 5:0.111886 
-1 2:0.0687881 3:0.00293539 4:0.000135132 5:0.0175131 
-1 2:0.013223 3:0.00280572 4:9.4504e-05 5:0.0602689 
-1 1:0.0288486 3:0.0124707 4:0.00042306 5:0.0395132 
1 2:0.219997 3:0.0443347 4:0.00660115 5:0.0497363 
-1 1:0.000460871 3:0.0335174 4:0.0021418 5:0.0488674 
-1 1:0.16664 2:0.00305715 3:0.000414247 4:6.18251e-06 5:0.0171313 
-1 1:0.0356611 3:0.00214283 4:4.946e-05 5:0.0555837 
-1 2:0.231682 3:0.000768332 4:1.67811e-05 5:0.0207803 
-1 1:7.84147e-05 2:0.0858045 3:0.0212081 4:0.000885865 5:0.0288351 
1 1:0.176059 3:0.0398807 4:0.00142551 5:0.0799743 
-1 1:0.0120184 2:0.0173532 3:0.0244948 4:0.00179823 5:0.0108131 
-1 1:0.119555 3:0.0022887 4:0.000133365 5:0.0477041 
-1 2:0.0173417 3:0.0229094 4:0.000245534 5:0.0340902 
-1 1:0.0661307 2:0.261681 3:0.00375122 4:5.7409e-05 5:0.0209348 
-1 1:0.0403734 3:0.00173519 4:2.56132e-05 5:0.0144021 
-1 1:0.0101357 2:0.0279627 3:0.00113004 4:9.71537e-06 5:0.0239746 
-1 2:0.168513 3:0.000506098 4:9.71537e-06 5:0.0069038 
1 1:0.0187252 3:0.000705643 4:1.50147e-05 5:0.0406508 
-1 2:0.00693996 3:0.000585732 4:2.56132e-05 5:0.0213608 
-1 1:0.134791 2:0.0348316 3:0.0132062 4:0.000255249 5:0.039876 
-1 1:0.0436981 3:0.000413601 4:4.41608e-06 5:0.00793613 
-1 1:0.134791 3:0.0270498 4:0.000897347 5:0.0122132 
-1 1:0.0288486 3:0.00131056 4:2.03139e-05 5:0.00646658 
-1 1:0.0490391 2:0.00291603 3:0.00147705 4:3.17957e-05 5:0.0135322 
-1 1:0.034133 2:0.0238082 3:0.000436891 4:7.94894e-06 5:0.00963464 
-1 2:0.126576 3:0.00314499 4:0.000105103 5:0.029092 
-1 2:0.0434315 3:0.00401708 4:5.82922e-05 5:0.0465357 
-1 1:0.0119747 2:0.126175 3:0.000559896 4:1.41314e-05 5:0.00818077 
-1 1:0.111876 3:0.000290164 4:8.83215e-06 5:0.0158129 
1 2:0.387309 3:0.0433289 4:0.00105633 5:0.0865254 
-1 1:0.0647005 2:0.0796038 3:0.000789901 4:4.41608e-05 5:0.00496848 
-1 1:0.216474 3:0.0227402 4:0.000657112 5:0.0826642 
-1 2:0.0498014 3:0.000740925 4:1.50147e-05 5:0.0111585 
-1 1:0.0203369 3:0.000270342 4:7.94894e-06 5:0.0101307 
-1 1:0.117919 3:0.00195376 4:1.85475e-05 5:0.0249874 
-1 1:0.05243 2:0.0641423 3:0.00223426 4:5.65258e-05 5:0.00880106 
-1 2:0.00457271 3:0.000822802 4:1.05986e-05 5:0.00601032 
-1 1:0.0362541 3:0.00144435 4:4.41608e-05 5:0.009797 
-1 1:0.121581 2:0.336515 3:0.00652139 4:0.000293227 5:0.0205222 
-1 1:0.0323271 3:0.0428306 4:0.00177526 5:0.0203503 
-1 1:0.0960253 2:0.0583275 3:0.000615956 4:3.35622e-05 5:0.00168956 
-1 1:0.0223246 2:0.00798236 3:0.00243215 4:3.79782e-05 5:0.013886 
-1 1:0.0220384 2:0.148108 3:0.00776429 4:0.000862901 5:0.0702002 
-1 1:0.101823 3:0.00118206 4:7.94894e-06 5:0.011425 
-1 1:0.00218418 3:0.000156677 4:6.18251e-06 5:0.00273924 
-1 1:0.145497 3:0.000601519 4:1.58979e-05 5:0.00878091 
-1 1:0.311141 3:0.0198109 4:0.000484002 5:0.110806 
-1 1:0.244377 3:0.00155765 4:3.2679e-05 5:0.0180018 
-1 1:0.0018504 2:0.000105479 3:0.00143005 4:0.000288811 5:0.00140293 
-1 1:0.0890775 3:0.0196491 4:0.000498133 5:0.0171302 
-1 2:0.277292 3:0.00164255 4:3.00293e-05 5:0.0116366 
1 1:0.391255 3:0.00173851 4:3.97447e-05 5:0.107525 
-1 1:0.0318116 3:0.0039764 4:0.000198723 5:0.0316421 
-1 1:0.0337487 2:0.0333308 3:0.0023227 4:0.000711871 5:0.0125816 
-1 1:0.00604624 3:0.00184798 4:5.29929e-06 5:0.0377044 
-1 1:0.151402 2:0.102328 3:0.0189892 4:0.000852303 5:0.0130446 
1 1:0.690145 2:0.063423 3:0.0169044 4:0.000499017 5:0.109024 
-1 1:0.0335656 3:0.00327484 4:6.9774e-05 5:0.0092019 
-1 1:0.0101635 2:0.0164975 3:0.263521 4:0.0280006 5:0.0384277 
1 2:0.0419882 3:0.00697349 4:0.000121884 5:0.0670266 
1 1:0.113402 2:0.275357 3:0.121377 4:0.011019 5:0.158228 
1 2:0.0294579 3:0.00931219 4:0.000286162 5:0.04367 
-1 2:0.0525761 3:0.000720977 4:6.18251e-06 5:0.00338024 
-1 1:0.0246173 2:0.0490945 3:0.000995692 4:5.21097e-05 5:0.0292454 
1 1:0.0860843 2:0.136868 3:0.0168047 4:0.000391264 5:0.0272776 
1 2:0.0559962 3:0.00424205 4:6.80076e-05 5:0.0213177 
1 2:0.0649342 3:0.024071 4:0.000711871 5:0.0483384 
1 2:0.208428 3:0.0130006 4:0.000168694 5:0.0953203 
1 1:0.0156842 3:0.00086295 4:8.83215e-06 5:0.0352821 
-1 2:0.022007 3:0.00841275 4:0.000219921 5:0.0143478 
1 2:0.247114 3:0.00543324 4:6.09418e-05 5:0.0548772 
1 1:0.221154 2:0.00655711 3:0.00181146 4:2.38468e-05 5:0.0442998 
-1 2:3.39767e-05 3:0.00827218 4:0.000140431 5:0.0177505 
-1 2:0.161248 3:0.00262691 4:5.12265e-05 5:0.0112044 
-1 1:0.0316338 3:0.00462482 4:0.00044514 5:0.00487275 
-1 1:0.217123 2:0.0454137 3:0.00108058 4:1.85475e-05 5:0.0793478 
-1 1:0.16664 2:0.22074 3:0.00174351 4:3.97447e-05 5:0.0081427 
-1 1:0.300445 3:0.00940743 4:0.000374483 5:0.0198974 
-1 1:0.210237 3:0.00106079 4:7.06572e-06 5:0.0102628 
-1 1:0.110494 2:0.00574264 3:0.00275401 4:5.91754e-05 5:0.153907 
1 1:0.225077 3:0.00782018 4:0.000184592 5:0.0730402 
-1 2:0.016511 3:0.000283976 4:4.41608e-06 5:0.00572089 
-1 1:0.00184907 3:0.000236779 4:2.64965e-06 5:0.00270509 
-1 2:0.0564668 3:0.00267667 4:6.53579e-05 5:0.0306097 
-1 1:0.126059 2:0.0162186 3:0.0207712 4:0.000414228 5:0.0619797 
-1 1:0.0522055 2:0.0818746 3:0.000375733 4:1.58979e-05 5:0.00379508 
-1 1:0.231947 2:0.0269616 3:0.006843 4:0.000110402 5:0.00961337 
1 1:0.0844812 2:0.136868 3:0.158845 4:0.00678133 5:0.0960565 
1 1:0.309151 3:0.010363 4:0.00019784 5:0.163487 
1 1:0.216474 3:0.0048469 4:7.59565e-05 5:0.143727 
1 1:0.748463 3:0.0147818 4:0.000219921 5:0.186371 
-1 1:0.000724844 3:0.00118194 4:2.38468e-05 5:0.138808 
-1 1:0.116105 2:0.107675 3:0.00252548 4:6.09418e-05 5:0.0429859 
1 1:0.0304564 3:0.00950694 4:0.000368301 5:0.010401 
1 2:0.270557 3:0.00144937 4:1.76643e-05 5:0.0574983 
1 1:0.135073 2:0.00964903 3:0.0026974 4:5.29929e-05 5:0.0348857 
1 2:0.0721778 3:0.0639266 4:0.00181412 5:0.185158 
-1 1:0.110494 2:0.043134 3:0.00339319 4:0.000431892 5:0.0221037 
1 1:0.374307 2:0.053637 3:0.00105563 4:2.29636e-05 5:0.0281146 
1 1:0.0194609 2:0.106525 3:0.0222662 4:0.000567024 5:0.0800252 
-1 1:0.309151 2:0.0706207 3:0.000365424 4:7.06572e-06 5:0.0180679 
-1 1:0.225077 2:0.0234093 3:0.00547844 4:4.68104e-05 5:0.0221283 
-1 1:0.254783 3:0.0399221 4:0.00141756 5:0.0248094 
-1 1:0.0120184 2:0.0451535 3:0.000557447 4:1.76643e-06 5:0.00489066 
-1 1:0.00236466 3:0.000534343 4:9.71537e-06 5:0.00703256 
1 1:0.166087 2:0.0362316 3:0.00961123 4:0.000189008 5:0.0436515 
-1 1:0.00236466 3:0.0018514 4:2.73797e-05 5:0.128353 
1 1:0.0273034 3:0.000737091 4:3.62118e-05 5:0.00509836 
-1 1:0.0399667 2:0.132568 3:0.00124038 4:5.29929e-06 5:0.00863199 
1 1:0.254783 2:0.0432883 3:0.0573139 4:0.00159597 5:0.339598 
1 1:0.248235 3:0.00112677 4:2.11972e-05 5:0.104362 
1 1:0.240538 2:0.254294 3:0.0207233 4:0.000963588 5:0.157209 
-1 1:0.054377 2:0.172771 3:0.00845409 4:0.000383315 5:0.00221636 
1 2:0.220949 3:0.0109952 4:0.000162512 5:0.131556 
1 1:0.0417315 3:0.00128714 4:6.18251e-05 5:0.049247 
1 1:0.186408 2:0.265123 3:0.0229286 4:0.00037095 5:0.204903 
1 1:0.210237 3:0.00789952 4:0.000112168 5:0.141177 
1 1:2.11163e-05 2:0.575434 3:0.000823633 4:8.83215e-06 5:0.0372319 
1 1:0.186408 3:0.0169687 4:0.000430126 5:0.0569961 
1 1:0.134791 2:0.0886777 3:0.000382853 4:4.41608e-06 5:0.0745585 
1 1:0.0310601 2:0.0436275 3:0.0160976 4:0.000267614 5:0.110173 
1 1:0.0571569 3:0.0646802 4:0.00351696 5:0.0579131 
1 1:0.108361 2:0.114704 3:0.00047731 4:7.06572e-06 5:0.0194596 
1 1:0.273145 3:0.00384972 4:5.29929e-05 5:0.0830013 
1 1:0.0226384 2:0.135177 3:0.00381549 4:2.03139e-05 5:0.0357949 
1 1:0.17561 2:0.0150956 3:0.00236802 4:5.29929e-05 5:0.0351818 
1 1:0.0132241 3:0.0107182 4:0.000433659 5:0.0879658 
1 2:0.00544395 3:0.0247057 4:0.00270705 5:0.0459311 
-1 1:0.456536 2:0.152444 3:0.00270749 4:3.88615e-05 5:0.0730699 
-1 2:0.0883502 3:0.0223634 4:0.000426593 5:0.0120649 
1 1:0.690145 3:0.0353511 4:0.00323522 5:0.0306909 
-1 1:0.0194492 2:0.148282 3:0.0126273 4:0.000760448 5:0.0184816 
1 1:0.177274 3:0.0460805 4:0.000777229 5:0.158599 
-1 2:0.146263 3:0.0244307 4:0.000638565 5:0.0694674 
-1 1:0.221154 3:0.00353605 4:6.18251e-05 5:0.0374643 
1 1:0.20514 3:0.0455345 4:0.00130274 5:0.060134 
1 1:0.121108 2:0.111271 3:0.00981001 4:0.000316191 5:0.0179447 
1 1:0.0791235 2:0.0309537 3:0.00247454 4:3.44454e-05 5:0.0716345 
1 1:0.0909532 3:0.000378901 4:5.29929e-06 5:0.0184839 
1 1:0.00408817 2:0.0187121 3:0.000997428 4:5.29929e-06 5:0.0234406 
-1 2:0.0238082 3:0.000784174 4:1.41314e-05 5:0.0149301 
1 1:0.034133 2:0.265626 3:0.00397723 4:5.29929e-05 5:0.130445 
1 1:0.00651196 2:0.0882329 3:0.0757067 4:0.00804874 5:0.116491 
1 1:0.188289 3:0.0353899 4:0.00168252 5:0.0620805 
1 1:0.300445 3:0.00453283 4:0.000264965 5:0.0617099 
1 1:0.177274 3:0.0525876 4:0.000804609 5:0.176604 
-1 2:0.0661041 3:0.00367121 4:4.76936e-05 5:0.0236091 
-1 1:0.135073 3:0.159455 4:0.00306211 5:0.017868 
1 1:0.0223246 2:0.0862921 3:0.00734636 4:0.000464571 5:0.0305997 
1 1:0.0520191 3:0.00364699 4:6.18251e-05 5:0.296353 
1 1:0.217123 3:0.00259995 4:8.56719e-05 5:0.0721607 
-1 2:0.447244 3:0.000651991 4:1.50147e-05 5:0.00475014 
1 2:0.00491164 3:0.00200745 4:6.09418e-05 5:0.0547059 
1 2:0.14426 3:0.0089816 4:0.000124533 5:0.097348 
-1 1:0.456536 2:0.0182975 3:0.00521344 4:7.59565e-05 5:0.0595529 
1 1:0.0342804 3:0.0267232 4:0.00178586 5:0.049888 
-1 2:0.00196596 3:0.00254046 4:8.47887e-05 5:0.025386 
-1 2:0.0188024 3:0.00175165 4:2.473e-05 5:0.0235016 
-1 1:0.118725 3:0.002254 4:3.09125e-05 5:0.02832 
-1 1:0.0854435 2:0.0498014 3:0.00693794 4:0.00052463 5:0.0162283 
-1 1:0.0194609 2:0.0436275 3:0.000390839 4:2.64965e-06 5:0.0182644 
-1 1:0.180433 2:0.0534598 3:0.0300483 4:0.000435425 5:0.0160167 
1 2:0.0620641 3:0.00345717 4:0.000121 5:0.0115257 
-1 1:0.20786 2:0.0534598 3:0.00084458 4:1.14818e-05 5:0.00992632 
-1 1:0.00309178 3:0.00383564 4:0.000115701 5:0.0448691 
-1 2:0.0935395 3:0.000893482 4:2.73797e-05 5:0.0279097 
-1 1:0.452823 2:0.0147032 3:0.0789327 4:0.00207202 5:0.0327919 
1 1:0.0667031 3:0.0273156 4:0.000869084 5:0.0372504 
1 1:0.316587 2:0.0344624 3:0.00166136 4:0.000181059 5:0.00924724 
-1 1:0.0578331 2:0.078048 3:0.00176345 4:2.38468e-05 5:0.0312944 
1 1:1.43666e-05 3:0.0230958 4:0.00100598 5:0.0302061 
-1 1:0.300445 2:0.257308 3:0.00687444 4:9.18544e-05 5:0.0367858 
-1 1:0.317133 3:0.026344 4:0.000703922 5:0.054829 
-1 1:0.141223 2:0.0758545 3:0.000486079 4:3.53286e-06 5:0.0161594 
-1 1:0.0860905 3:0.00301166 4:6.88908e-05 5:0.0525903 
-1 2:0.671169 3:0.00114513 4:1.50147e-05 5:0.0297409 
-1 1:0.118725 2:0.00730624 3:0.00040569 4:3.44454e-05 5:0.00715852 
-1 1:0.00184456 2:0.0417185 3:0.00263218 4:7.59565e-05 5:0.00681815 
-1 1:0.00717228 3:0.0021034 4:3.09125e-05 5:0.0135103 
1 1:0.133358 3:0.00223488 4:5.47593e-05 5:0.0236208 
-1 1:0.0218597 2:0.242616 3:0.000794207 4:7.94894e-06 5:0.00279186 
-1 1:0.0385433 2:0.14874 3:0.00611302 4:0.000143081 5:0.0320496 
-1 1:0.0356611 3:0.00106153 4:1.32482e-05 5:0.0163559 
-1 1:0.193373 2:0.0177672 3:0.000940706 4:1.94307e-05 5:0.00688813 
-1 2:0.0173045 3:0.00138354 4:2.29636e-05 5:0.0265885 
-1 2:0.054293 3:0.000650298 4:1.58979e-05 5:0.0183489 
-1 1:0.177079 2:0.108976 3:0.00586517 4:0.000114818 5:0.0788356 
-1 1:0.0223246 2:0.00500142 3:0.000613504 4:7.06572e-06 5:0.00665356 
-1 1:0.130595 2:0.0982754 3:0.0163187 4:0.000439841 5:0.0276314 
-1 1:0.150343 3:0.00975873 4:0.000490184 5:0.00856089 
-1 1:0.314305 2:0.199076 3:0.017412 4:0.00118527 5:0.0284365 
-1 1:0.0316338 3:0.00364436 4:0.000233169 5:0.00875515 
-1 1:0.317133 2:0.0431517 3:0.0439635 4:0.0013946 5:0.0508789 
-1 1:0.0155676 2:0.0128263 3:0.00149936 4:5.29929e-05 5:0.00128033 
-1 1:0.142817 2:0.345063 3:0.000364122 4:5.29929e-06 5:0.0413344 
-1 2:0.00118942 3:0.000550858 4:1.14818e-05 5:0.00589947 
-1 2:0.0510539 3:0.00324717 4:5.21097e-05 5:0.0163649 
-1 1:0.0215918 2:0.00618351 3:0.000490708 4:8.83215e-06 5:0.0059297 
-1 1:0.0637965 2:0.00160118 3:0.00021177 4:8.83215e-06 5:0.00639268 
1 1:0.186735 2:0.0655754 3:0.12232 4:0.00279891 5:0.185144 
-1 1:0.126319 2:0.048347 3:0.0281536 4:0.000548477 5:0.0139151 
-1 1:0.0851045 3:0.00191235 4:2.56132e-05 5:0.0211688 
-1 1:0.180954 3:0.00480581 4:9.09712e-05 5:0.110534 
-1 1:0.0194492 2:0.00469937 3:4.94247e-05 5:0.00475126 
-1 1:0.0109744 2:0.0649342 3:0.0173138 4:0.00116054 5:0.0213574 
1 2:0.0474117 3:0.0214749 4:0.000859368 5:0.0507921 
1 2:0.201674 3:0.0698816 4:0.00150235 5:0.0316611 
-1 2:0.000449251 3:0.000376095 4:2.64965e-06 5:0.00215142 
-1 1:0.170369 3:0.0164826 4:0.000187242 5:0.0140058 
-1 1:0.664329 3:0.00382839 4:0.000119234 5:0.0124338 
-1 1:0.0647005 3:0.0469246 4:0.00183709 5:0.00953444 
1 1:0.380749 2:0.254294 3:0.00404393 4:3.62118e-05 5:0.106322 
1 1:0.00641435 2:0.0336091 3:0.000770115 4:3.17957e-05 5:0.0157894 
-1 1:0.135073 3:0.00182957 4:5.12265e-05 5:0.0387916 
-1 2:0.0344476 3:0.00820792 4:0.000384199 5:0.00261776 
-1 1:0.048708 3:0.0215137 4:0.000877916 5:0.028324 
1 2:0.0582579 3:0.0138808 4:0.00072247 5:0.026345 
-1 1:0.103136 3:0.00870343 4:0.000591754 5:0.0662025 
-1 1:0.185139 3:0.000624749 4:1.41314e-05 5:0.0126762 
-1 1:0.0262118 2:0.0317472 3:0.0332516 4:0.000911478 5:0.0716675 
-1 2:0.0203805 3:0.00437744 4:0.000140431 5:0.0294151 
-1 1:0.0860905 3:0.0310215 4:0.000302943 5:0.0487622 
-1 1:0.0194609 2:0.112699 3:0.000251036 5:0.0141788 
1 1:0.273145 3:0.0200249 4:0.00024995 5:0.110206 
1 1:0.0688673 2:0.00305715 3:0.00356411 4:8.56719e-05 5:0.0885945 
1 1:0.121108 3:0.00189628 4:2.82629e-05 5:0.0366867 
1 1:0.0194492 2:0.018722 3:0.00131545 4:1.2365e-05 5:0.0118163 
-1 1:0.190427 3:0.00129478 4:1.2365e-05 5:0.0373114 
1 1:0.0381788 3:0.00198437 4:8.12558e-05 5:0.0378707 
1 2:0.0274884 3:0.0148118 4:0.000291461 5:0.126124 
1 2:0.29153 3:0.0340937 4:0.000859368 5:0.181856 
1 2:0.00235534 3:0.00137134 4:3.09125e-05 5:0.0313834 
1 1:0.134791 2:0.023794 3:0.000969128 4:1.67811e-05 5:0.0513838 
1 1:0.0732366 2:0.0484673 3:0.00161599 4:3.44454e-05 5:0.0270005 
-1 1:0.134791 3:0.0217131 4:0.000438958 5:0.0219514 
-1 1:0.135073 2:0.0357884 3:0.00113753 4:3.62118e-05 5:0.0115605 
1 1:0.0781566 3:0.0267929 4:0.000150147 5:0.224494 
-1 1:0.00236466 2:6.86057e-05 3:0.0151579 4:0.00081874 5:0.0228074 
-1 1:0.0756627 3:0.000650853 4:2.11972e-05 5:0.095107 
-1 1:0.110494 3:0.000419887 4:7.94894e-06 5:0.00580486 
-1 1:0.435824 3:0.00190312 4:3.44454e-05 5:0.108204 
-1 2:0.22074 3:0.00174111 4:2.11972e-05 5:0.0400971 
-1 1:0.0121675 3:0.00887359 4:0.000280862 5:0.0108416 
-1 1:0.0109744 3:0.00166351 4:1.85475e-05 5:0.0304994 
-1 1:0.117919 2:0.219206 3:0.0163347 4:0.000679192 5:0.0503605 
-1 1:0.0363176 3:0.00836329 4:0.0002526 5:0.0122199 
-1 1:0.25327 2:0.00899007 3:0.00797014 4:0.00015103 5:0.0349221 
-1 1:0.0785399 3:8.51756e-05 4:3.53286e-06 5:0.0045626 
-1 1:0.216474 3:0.000134628 4:9.71537e-06 5:0.0122406 
1 1:0.121412 2:0.0512914 3:0.00280988 4:7.06572e-05 5:0.264062 
-1 2:0.0447593 3:0.019077 4:0.000172227 5:0.028834 
-1 1:0.232597 2:0.38807 3:0.0328709 4:0.000655346 5:0.0202971 
1 2:0.163148 3:0.00104884 4:1.85475e-05 5:0.0307945 
1 2:0.270557 3:0.00734206 4:0.000138665 5:0.153402 
1 1:0.0273665 3:0.000997684 4:2.03139e-05 5:0.0405109 
1 1:0.273145 2:0.030795 3:0.0479846 4:0.00115083 5:0.290176 
-1 1:0.166087 2:0.0577156 3:0.000556869 4:1.50147e-05 5:0.0174812 
-1 1:0.211337 3:0.00137269 4:3.09125e-05 5:0.0292118 
1 1:0.0220384 2:0.161248 3:0.0076831 4:0.000258782 5:0.0477959 
1 1:0.190427 2:0.191975 3:0.188661 4:1 5:0.159985 
1 1:0.0353839 3:0.021067 4:0.000915894 5:0.0410785 
1 1:0.121108 2:0.22074 3:0.000650082 4:8.83215e-06 5:0.0361448 
1 1:0.0208513 2:0.000186738 3:0.00175566 4:3.09125e-05 5:0.100502 
1 1:0.141829 3:0.00508877 4:8.92047e-05 5:0.0936828 
1 1:0.115446 3:0.00850429 4:0.000188125 5:0.115475 
1 1:0.119555 2:0.0387005 3:0.0345775 4:0.00184415 5:0.369486 
1 1:0.0187252 2:0.0395661 3:0.0310859 4:0.00170019 5:0.151547 
1 2:0.245152 3:0.041922 4:0.000591754 5:0.0860585 
-1 1:0.118725 2:0.469435 3:0.00176759 4:4.23943e-05 5:0.00817797 
1 1:0.221154 2:0.0140452 3:0.00626951 4:4.68104e-05 5:0.0936145 
1 1:0.374307 2:0.0147032 3:0.00419894 4:4.68104e-05 5:0.0833069 
1 1:0.179179 2:0.0286863 3:0.00729036 4:0.000367417 5:0.0515736 
1 1:0.126319 3:0.00499996 4:6.62411e-05 5:0.107775 
1 2:0.0862921 3:0.00740691 4:0.000102453 5:0.0564956 
1 1:0.0756627 2:0.0590216 3:0.00159132 4:2.11972e-05 5:0.0937242 
1 1:0.172822 2:0.0366375 3:0.0134911 4:0.000287928 5:0.30902 
1 1:0.100083 2:0.306732 3:0.0369606 4:0.00242884 5:0.0343091 
1 1:0.0890775 2:0.00739691 3:0.00108193 4:2.64965e-05 5:0.196612 
1 1:0.192569 3:0.00319376 4:4.15111e-05 5:0.285486 
1 1:0.134791 2:0.253651 3:0.000289463 4:5.29929e-06 5:0.0710321 
1 1:0.000137431 3:0.0145835 4:0.000213738 5:0.233489 
1 1:0.0284666 3:0.00619835 4:7.94894e-05 5:0.0722666 
1 2:0.0294656 3:0.0595018 4:0.00215328 5:0.018574 
1 1:0.0724852 3:0.000880607 4:1.05986e-05 5:0.00728281 
1 1:0.177079 2:0.203189 3:0.00661101 4:7.68397e-05 5:0.0657182 
1 1:0.216474 3:0.00671625 4:7.77229e-05 5:0.155651 
1 1:0.20786 3:0.000872589 4:1.32482e-05 5:0.0615643 
1 1:0.0952866 3:0.062367 4:0.00214268 5:0.107135 
1 1:0.317133 2:0.142042 3:0.032006 4:0.000521097 5:0.249807 
1 1:0.0399667 3:0.000975827 4:1.05986e-05 5:0.0108842 
1 2:0.225808 3:0.00573976 4:0.000111285 5:0.0198829 
1 1:0.179826 3:0.0128984 4:0.000193424 5:0.125894 
1 1:0.300445 2:0.524367 3:0.00646335 4:4.85768e-05 5:0.0631744 
1 2:0.03726 3:0.00281133 4:4.15111e-05 5:0.0111176 
1 1:0.13512 2:0.0551016 3:0.00199327 4:4.41608e-06 5:0.0215013 
-1 2:0.570306 3:0.000354982 4:4.41608e-06 5:0.070797 
1 1:0.0428682 3:0.00218804 4:3.09125e-05 5:0.176428 
1 1:0.240806 2:0.145247 3:0.0227798 4:0.00101393 5:0.011626 
1 1:0.217123 3:0.00790644 4:9.53872e-05 5:0.115107 
-1 1:0.232597 3:0.00116037 4:1.67811e-05 5:0.0168027 
1 1:2.11163e-05 2:0.575434 3:0.000481187 4:4.41608e-06 5:0.0257375 
-1 1:0.0534112 2:0.122793 3:0.0111543 4:0.000359469 5:0.00878427 
1 1:0.0273665 2:0.164821 3:0.000515702 4:9.71537e-06 5:0.039876 
-1 1:9.44288e-06 2:0.334163 3:0.00525259 4:7.77229e-05 5:0.0569687 
-1 1:0.0578331 2:0.0765295 3:0.00220413 4:2.82629e-05 5:0.0225331 
1 1:0.217123 3:0.0229601 4:0.000819624 5:0.111372 
1 2:0.259499 3:0.0277736 4:0.000501666 5:0.132754 
1 1:0.0781566 3:0.0798626 4:0.00195456 5:0.092351 
1 2:0.0447593 3:0.0241754 4:0.000745434 5:0.0911843 
1 2:0.11882 3:0.0625441 4:0.00119941 5:0.0606854 
-1 1:0.497644 2:0.106312 3:0.000639506 4:3.53286e-06 5:0.0249219 
-1 1:0.0177357 2:0.11952 3:0.023902 4:0.000349753 5:0.0274349 
-1 2:0.00074177 3:0.00315359 4:5.12265e-05 5:0.0149245 
-1 1:0.0688673 2:0.114218 3:0.0036041 4:4.15111e-05 5:0.107455 
-1 1:9.48604e-05 3:0.00315262 4:5.47593e-05 5:0.0797386 
1 2:0.915662 3:0.0295031 4:0.000790478 5:0.163038 
1 1:0.0109771 3:0.0100728 4:0.000478703 5:0.050754 
1 1:0.134791 2:0.027246 3:0.00106859 4:1.76643e-05 5:0.0314987 
-1 1:0.130595 3:0.00641221 4:0.000121 5:0.0654988 
-1 1:0.026799 2:0.158129 3:0.00158118 4:3.17957e-05 5:0.0288659 
1 2:0.263212 3:0.00472941 4:0.000102453 5:0.0913455 
-1 1:0.0409052 3:0.00210042 4:5.65258e-05 5:0.0211537 
-1 1:0.119555 3:0.00124752 4:1.94307e-05 5:0.0288071 
1 1:0.0417315 2:0.283762 3:0.0251957 4:0.000215504 5:0.012501 
-1 1:0.14814 2:0.0228241 3:0.0079079 4:0.00110932 5:0.0192799 
-1 1:0.135073 2:0.0534598 3:0.000697523 4:1.14818e-05 5:0.00716468 
-1 1:0.0146858 2:0.0221724 3:0.00595839 4:0.000194307 5:0.0642185 
-1 1:0.10208 2:0.224327 3:0.0274008 4:0.000855835 5:0.00911848 
-1 1:0.0535539 3:0.00128157 4:0.000208439 5:0.0176072 
-1 2:0.00855619 3:0.000255527 4:8.83215e-06 5:0.012618 
-1 1:0.174792 2:0.062502 3:0.00532997 4:0.000104219 5:0.00934913 
-1 1:0.221154 3:0.00076915 4:9.71537e-06 5:0.0135495 
-1 2:0.00964903 3:0.00188769 4:6.35915e-05 5:0.0308292 
1 1:0.21515 3:0.0355011 4:0.000953872 5:0.0319119 
1 1:0.0765288 2:0.110366 3:0.0140045 4:0.00044514 5:0.0269529 
-1 1:0.179826 3:0.00432307 4:6.53579e-05 5:0.045612 
-1 1:0.108361 3:0.000306518 5:0.00696874 
1 1:0.210324 3:0.0171239 4:0.000186358 5:0.0849769 
-1 2:0.21713 3:0.00216992 4:6.9774e-05 5:0.0402427 
-1 1:0.00236466 2:0.423373 3:0.00191382 4:4.06279e-05 5:0.0375958 
-1 1:0.0948793 3:0.000367176 4:7.06572e-06 5:0.0133312 
-1 1:0.346065 2:0.00614823 3:0.000350826 4:7.06572e-06 5:0.004047 
-1 1:0.00750205 3:0.00202413 4:4.946e-05 5:0.0252611 
-1 2:0.00735069 3:0.0071616 4:8.03726e-05 5:0.0128772 
-1 1:0.034133 3:0.00203745 4:3.17957e-05 5:0.0375561 
-1 2:0.0824423 3:0.000435096 4:1.14818e-05 5:0.0189356 
-1 1:0.116105 2:0.00864457 3:0.000510652 4:4.41608e-06 5:0.0263382 
-1 1:0.0520191 3:0.00908254 4:0.000286162 5:0.0456484 
-1 2:0.0722869 3:0.000651101 4:1.85475e-05 5:0.0194008 
-1 1:0.193373 2:0.206817 3:0.00686464 4:7.06572e-05 5:0.0303349 
-1 1:0.086166 2:0.0251513 3:0.00641824 4:0.000191658 5:0.016464 
-1 1:9.48604e-05 3:0.0026746 4:3.44454e-05 5:0.0258937 
-1 1:0.0471768 2:0.236571 3:0.0168994 4:0.000540528 5:0.0487476 
-1 1:0.193373 3:0.0026168 4:6.88908e-05 5:0.0409128 
-1 1:0.0018504 3:0.0011306 4:3.17957e-05 5:0.00839071 
-1 1:0.0103466 2:0.116074 3:0.0353297 4:0.00392589 5:0.0327908 
-1 1:0.0438694 2:0.159769 3:0.0132946 4:0.000257016 5:0.0658011 
-1 1:0.0135393 3:0.000235355 4:7.94894e-06 5:0.0127926 
-1 2:0.0784782 3:0.00371221 4:4.59272e-05 5:0.0171901 
-1 1:0.133358 3:0.000267528 5:0.0139308 
1 1:0.069444 2:0.0179664 3:0.00347906 4:6.35915e-05 5:0.0724748 
-1 1:0.177274 2:0.378212 3:0.0423774 4:0.000991851 5:0.0299878 
-1 1:0.0244933 3:0.000447805 4:8.83215e-06 5:0.0145891 
-1 1:0.0479753 2:0.270557 3:0.002152 4:2.64965e-05 5:0.0587943 
-1 1:0.134791 2:0.0451535 3:0.000548269 4:1.2365e-05 5:0.131239 
-1 1:0.193373 3:0.0209298 4:0.000426593 5:0.0314696 
-1 1:0.034133 2:0.152444 3:0.00213636 4:2.64965e-05 5:0.0170703 
-1 2:0.00339545 3:0.000375772 4:1.76643e-06 5:0.00512411 
-1 2:0.387309 3:0.000814631 4:1.14818e-05 5:0.0137522 
-1 1:0.451793 2:0.447244 3:0.0266742 4:0.000482235 5:0.0525528 
-1 1:0.177079 3:0.00184376 4:2.473e-05 5:0.079406 
-1 1:0.112481 2:0.0393534 3:0.00341999 4:4.41608e-05 5:0.00273868 
-1 1:0.0860905 2:0.0276956 3:0.0523816 4:0.000819624 5:0.0220679 
-1 1:0.170369 3:0.00185384 4:2.473e-05 5:0.0307004 
-1 1:0.0355105 2:0.0188954 3:0.00629906 4:0.000758682 5:0.00193365 
-1 2:0.0434432 3:0.0105567 4:0.000294994 5:0.00753529 
1 1:0.0653499 3:0.0521327 4:0.00483384 5:0.0626515 
1 1:0.126059 3:0.00032125 4:2.64965e-06 5:0.108542 
-1 2:0.206817 3:0.00129389 4:7.94894e-06 5:0.0255198 
-1 1:0.234235 2:0.00281071 3:0.000569826 4:3.53286e-06 5:0.00944486 
-1 1:0.0371212 2:0.0967989 3:0.00169479 4:1.76643e-05 5:0.0508067 
-1 1:0.0447018 2:0.0179133 3:0.00294666 4:3.00293e-05 5:0.0410914 
-1 1:0.00706608 3:0.00100719 4:1.67811e-05 5:0.00822668 
-1 2:0.0311876 3:0.00186538 4:3.44454e-05 5:0.00578695 
-1 1:0.0516069 3:0.000442346 4:9.71537e-06 5:0.00459115 
-1 1:0.0116968 3:0.00666252 4:0.00042306 5:0.0166431 
-1 1:0.0520191 3:0.00899578 4:0.000114818 5:0.0536881 
1 2:0.111271 3:0.0043609 4:9.00879e-05 5:0.153937 
1 1:0.209611 2:0.048055 3:0.067607 4:0.00225573 5:0.0765403 
1 1:0.383716 3:0.000639458 4:1.2365e-05 5:0.194555 
1 1:0.16246 3:0.00116558 4:8.83215e-07 5:0.0339558 
-1 2:0.203866 3:0.0098207 4:0.000242884 5:0.0166011 
1 1:0.0417315 3:0.000552764 4:3.53286e-06 5:0.0747875 
1 1:0.116105 3:0.0237387 4:0.000535228 5:0.349377 
1 1:0.313797 2:0.250966 3:0.00457722 4:5.29929e-05 5:0.111528 
1 1:0.129724 2:0.0845257 3:0.0251056 4:0.00054671 5:0.133071 
-1 1:0.339912 2:0.0196996 3:0.0042385 4:6.18251e-05 5:0.0141429 
1 1:0.110494 3:0.00197548 4:3.00293e-05 5:0.0212242 
-1 2:0.000245975 3:0.00425612 4:9.18544e-05 5:0.112576 
1 2:0.346641 3:0.0248356 4:0.00052463 5:0.0357669 
1 1:0.180433 3:0.00497455 4:4.15111e-05 5:0.122336 
1 1:0.0194609 2:0.0225128 3:0.00629372 4:1.58979e-05 5:0.103775 
1 1:0.0578331 2:0.164902 3:0.0102543 4:0.000282629 5:0.0623458 
1 1:0.0273665 3:0.00118107 4:2.82629e-05 5:0.0418281 
1 1:0.0194609 3:0.00637779 4:8.03726e-05 5:0.0496596 
1 1:0.0223246 3:0.00122333 4:2.03139e-05 5:0.0256082 
-1 2:0.0524446 3:0.0147624 4:0.000224337 5:0.117411 
1 2:0.256158 3:0.00148095 4:1.32482e-05 5:0.0341764 
-1 1:0.311431 2:0.026676 3:0.0196195 4:0.000706572 5:0.252334 
-1 1:0.223115 2:0.109115 3:0.0102855 4:0.000339155 5:0.0450102 
-1 1:0.25327 3:0.0388564 4:0.00126565 5:0.0178524 
-1 1:0.383716 2:0.128404 3:0.0214958 4:0.000840821 5:0.273025 
-1 1:0.0124124 3:0.000216599 4:4.41608e-06 5:0.0198106 
-1 1:0.126059 3:0.00357933 4:0.000560842 5:0.0415712 
-1 2:0.152169 3:0.000331992 4:5.29929e-06 5:0.00535196 
-1 1:0.000101905 2:0.0160217 3:0.000529431 4:1.05986e-05 5:0.00589611 
-1 2:0.256163 3:0.0214944 4:0.00137163 5:0.0256418 
-1 1:0.112481 3:0.00202564 4:8.03726e-05 5:0.0178065 
-1 1:0.0407856 3:0.000377843 4:3.53286e-06 5:0.00245597 
-1 2:0.0719952 3:0.015492 4:0.0002526 5:0.0247623 
-1 2:0.112699 3:0.0171004 4:0.000641214 5:0.00818973 
-1 2:0.147471 3:0.0333571 4:0.00318752 5:0.0186104 
-1 1:0.0117993 2:0.0144352 3:0.000659013 4:1.41314e-05 5:0.0125278 
-1 1:0.311431 3:0.0270634 4:0.00114641 5:0.118656 
1 1:0.113402 2:0.0306657 3:0.0140976 4:0.000435425 5:0.0188416 
1 1:0.0273665 3:0.00119858 4:2.29636e-05 5:0.0431891 
1 1:0.0562275 3:0.0117635 4:0.000125417 5:0.171782 
-1 1:0.135073 2:0.155632 3:0.000609982 4:1.14818e-05 5:0.00620794 
-1 2:0.000347986 3:0.000146452 4:4.41608e-06 5:0.00759127 
-1 1:0.0781566 3:0.00103146 4:1.58979e-05 5:0.0270727 
1 1:2.11163e-05 2:0.575434 3:0.00044899 4:4.41608e-06 5:0.0324924 
1 1:1 2:0.232967 3:0.173467 4:0.00649605 5:0.104059 
-1 1:0.16246 3:0.00130774 4:5.29929e-06 5:0.0292169 
-1 1:0.077466 2:0.191975 3:0.00183719 4:2.73797e-05 5:0.0831004 
1 1:0.16664 2:0.116573 3:0.0253384 4:0.00543619 5:0.0829078 
-1 1:0.0790341 3:0.00151672 4:1.41314e-05 5:0.0248273 
-1 1:9.48604e-05 2:0.142042 3:0.00402443 4:5.91754e-05 5:0.150989 
-1 1:0.0405639 2:0.19675 3:0.000847127 4:2.11972e-05 5:0.0261423 
-1 1:0.0382424 3:0.0177039 4:0.000657112 5:0.0197407 
-1 1:0.0328437 2:0.0505015 3:0.00298925 4:5.56426e-05 5:0.058497 
-1 1:0.0890131 2:0.18912 3:0.00845518 4:0.000147497 5:0.090536 
-1 2:0.334163 3:0.00701684 4:0.000188125 5:0.0359231 
-1 2:0.0306474 3:0.00368541 4:0.000121 5:0.0112833 
-1 1:0.283345 2:0.00469937 3:0.000224082 4:3.53286e-06 5:0.00483636 
-1 1:0.209384 2:0.214839 3:0.000173032 4:8.83215e-07 5:0.00942079 
-1 1:0.0194609 2:0.0413884 3:0.0120671 4:0.000836405 5:0.00999573 
-1 2:0.0391858 3:0.00356377 4:0.000349753 5:0.00927971 
1 1:0.216474 3:0.0244052 4:0.000783412 5:0.0360703 
-1 1:0.103136 2:0.0487047 3:0.000772591 4:9.71537e-06 5:0.0243816 
-1 2:0.608812 3:0.000674611 4:1.14818e-05 5:0.011196 
-1 1:0.012251 2:0.0939437 3:0.000672151 4:4.85768e-05 5:0.028292 
-1 1:0.134791 2:0.108976 3:0.00117032 4:1.2365e-05 5:0.0135294 
-1 1:0.497644 3:0.00173332 4:1.58979e-05 5:0.00242182 
1 1:0.176553 2:0.220112 3:0.0210308 4:0.00171167 5:0.0487196 
1 1:0.25327 3:0.00127262 4:2.11972e-05 5:0.182137 
1 1:0.316188 2:0.048347 3:0.00425407 4:2.64965e-05 5:0.102119 
-1 1:0.0124124 2:0.0565906 3:0.0174691 4:0.000542294 5:0.051961 
1 1:0.130595 3:0.0052623 4:0.00191216 5:0.0627859 
1 1:0.0562275 3:0.0121983 4:0.000144847 5:0.148789 
1 1:0.0868994 2:0.284557 3:0.00141889 4:2.38468e-05 5:0.0312278 
-1 1:0.00566606 3:0.00115515 4:1.32482e-05 5:0.0234148 
1 2:0.380646 3:0.0152089 4:0.000280862 5:0.0542261 
-1 1:0.216474 2:0.215026 3:0.00150396 4:4.68104e-05 5:0.132101 
1 1:0.548614 2:0.0998049 3:0.0240716 4:0.00117379 5:0.0466818 
-1 1:0.300445 2:0.181232 3:0.0752226 4:0.00222835 5:0.093778 
1 1:0.0220384 2:0.106725 3:0.000510959 4:3.53286e-06 5:0.0278179 
-1 1:0.00486508 2:0.00226422 3:0.0142613 4:0.00200843 5:0.00643523 
-1 1:0.048537 2:0.19675 3:0.000324124 4:1.76643e-06 5:0.0163509 
-1 1:0.0637965 2:0.095616 3:0.0718583 4:0.00481352 5:0.0514107 
-1 1:0.00619331 2:0.0244619 3:0.000584389 4:5.29929e-05 5:0.00643131 
-1 2:0.135926 3:0.00378008 4:6.9774e-05 5:0.038917 
-1 1:0.0417315 3:0.0170585 4:0.000801959 5:0.0259973 
-1 1:0.0194609 2:0.361616 3:0.00171618 4:3.35622e-05 5:0.0417985 
-1 1:0.180433 2:0.241964 3:0.000180616 4:9.71537e-06 5:0.00605454 
-1 1:0.20786 2:0.0443528 3:0.0155505 4:0.0003736 5:0.00445903 
-1 1:0.0134045 2:0.0101703 3:0.000101392 4:8.83215e-07 5:0.0184256 
-1 1:0.0325646 2:0.107031 3:0.000927934 4:2.11972e-05 5:0.00464881 
1 1:0.273145 3:0.00051619 4:4.41608e-06 5:0.0644889 
1 1:0.131804 3:0.00565968 4:0.000183709 5:0.103164 
1 1:0.0650682 2:0.465804 3:0.00440929 4:5.91754e-05 5:0.222345 
1 1:0.192569 2:0.0626158 3:0.00101915 4:9.71537e-06 5:0.329293 
-1 1:0.397823 2:0.0579092 3:0.00408495 4:0.000498133 5:0.0233532 
1 1:0.0124124 3:0.00842769 4:0.000183709 5:0.279081 
-1 2:0.0119374 3:0.0662772 4:0.0012312 5:0.0265667 
-1 1:0.232597 3:0.0033273 4:5.91754e-05 5:0.0528187 
-1 1:0.112214 2:0.0533241 3:0.0142785 4:0.00105191 5:0.017423 
1 1:0.0018504 3:0.00127026 4:3.00293e-05 5:0.0195862 
-1 1:0.0655316 3:0.00241257 4:6.71243e-05 5:0.00200754 
1 1:0.0628961 2:0.00470811 3:0.0018645 4:4.5044e-05 5:0.0516917 
1 2:0.000501474 3:0.0012481 4:1.2365e-05 5:0.0140226 
1 2:0.00477815 3:0.00152965 4:5.12265e-05 5:0.0245865 
1 1:0.232597 2:0.457923 3:0.0171001 4:0.000230519 5:0.127468 
1 1:0.184576 2:0.300382 3:0.00303107 4:4.41608e-05 5:0.365452 
1 1:0.058849 2:0.256395 3:0.13071 4:0.00343041 5:0.0455499 
1 1:0.207335 3:0.0273532 4:0.00139018 5:0.0121981 
1 2:0.114704 3:0.00269316 4:4.41608e-05 5:0.0989401 
-1 1:0.110494 2:0.035293 3:0.0141007 4:0.000498133 5:0.0557001 
1 1:0.151402 3:0.00403722 4:6.00586e-05 5:0.0327897 
1 1:0.0393872 3:0.00582675 4:0.000144847 5:0.0475613 
-1 2:0.0011021 3:0.00486154 4:0.000161628 5:0.0599845 
1 1:0.111106 3:0.0218781 4:0.000389498 5:0.0455538 
1 1:0.275068 3:0.00294673 4:7.77229e-05 5:0.0648164 
1 1:0.217123 3:0.00490146 4:4.06279e-05 5:0.0999305 
-1 1:0.0854435 3:0.0124469 4:0.00130981 5:0.00263175 
1 1:0.0124124 2:0.414852 3:0.334423 4:0.0298959 5:0.117112 
-1 1:0.134791 3:0.00148476 4:6.71243e-05 5:0.0403076 
1 1:0.0688673 3:0.0300248 4:0.00140166 5:0.155818 
-1 1:0.134791 2:0.0225128 3:0.00146944 4:1.67811e-05 5:0.42954 
-1 1:0.00619331 3:0.00249649 4:4.32775e-05 5:0.0155515 
1 2:0.090316 3:0.00214287 4:7.50733e-05 5:0.0296166 
-1 1:0.034133 2:0.011157 3:0.00135537 4:0.000105986 5:0.318496 
1 1:0.135073 2:0.00739691 3:0.00217813 4:1.85475e-05 5:0.020871 
-1 1:0.0141845 3:0.00336514 4:3.44454e-05 5:0.0412829 
1 1:0.130822 2:0.0218342 3:0.00944506 4:6.35915e-05 5:0.0583531 
-1 1:0.116763 2:0.0893427 3:0.000268996 4:3.53286e-06 5:0.0130849 
1 1:0.0851045 2:0.195988 3:0.0104361 4:0.000174877 5:0.220562 
-1 2:0.600013 3:0.00185112 4:2.03139e-05 5:0.00698442 
-1 1:0.0275147 2:0.000105479 3:0.00417488 4:6.44747e-05 5:0.0168755 
-1 1:0.151402 3:0.00118102 4:1.2365e-05 5:0.0303998 
1 2:0.0579092 3:0.0107245 4:7.33069e-05 5:0.0370875 
-1 1:0.190082 2:0.0115138 3:0.00883423 4:0.000418644 5:0.020843 
-1 1:0.210237 3:0.0344578 4:0.00211177 5:0.0516246 
-1 2:0.090316 3:0.0123651 4:0.000199607 5:0.027927 
1 1:0.00169113 2:0.0194077 3:0.00697855 4:0.000167811 5:0.0263584 
-1 1:0.00926555 2:0.0858045 3:0.00859191 4:0.000128949 5:0.0426511 
-1 1:0.151402 2:0.0336091 3:0.000847851 4:8.83215e-06 5:0.0200642 
-1 2:0.245152 3:0.00572113 4:3.88615e-05 5:0.067934 
-1 1:0.111994 2:0.000470101 3:0.00515549 4:8.47887e-05 5:0.0521553 
1 1:0.0238949 3:0.0145954 4:0.000333855 5:0.0129141 
-1 1:0.0266364 2:0.0670055 3:0.00232832 4:7.50733e-05 5:0.00867342 
1 1:0.142817 3:0.00210321 4:4.5044e-05 5:0.050464 
1 2:0.386822 3:0.00943769 4:0.000170461 5:0.0437965 
-1 2:0.0143098 3:0.0108841 4:0.000381549 5:0.0230179 
-1 2:0.0500753 3:0.00763159 4:0.000280862 5:0.00577743 
-1 1:0.00604624 2:0.198752 3:0.00362239 4:6.27083e-05 5:1 
-1 1:0.0874872 3:0.000390308 4:6.18251e-06 5:0.0113158 
-1 1:0.201808 2:0.0379097 3:0.00059765 4:3.44454e-05 5:0.0366005 
-1 1:0.300445 2:0.0195664 3:0.0246271 4:0.000514914 5:0.0288222 
-1 2:0.114704 3:0.020716 4:0.000106869 5:0.033499 
-1 1:0.093622 3:0.01953 4:0.000189008 5:0.0294274 
-1 1:0.221154 2:0.0285173 3:0.00109148 4:2.64965e-06 5:0.0209488 
-1 1:0.121412 2:0.265626 3:0.00301841 4:4.41608e-05 5:0.023721 
1 1:0.200388 3:0.036706 4:0.000552009 5:0.0620978 
-1 1:0.11324 3:0.00105502 4:2.56132e-05 5:0.042973 
-1 1:6.38364e-05 3:0.0292811 4:0.0016366 5:0.0233762 
-1 1:0.151402 3:0.201522 4:0.0134628 5:0.0418707 
-1 1:0.141829 2:0.0222615 3:0.00172734 4:2.64965e-05 5:0.0637538 
-1 1:0.00832573 2:0.0337866 3:0.00376877 4:5.7409e-05 5:0.093381 
-1 1:0.00641435 2:0.122793 3:0.00135457 4:2.38468e-05 5:0.00704824 
-1 1:0.163399 2:0.0506341 3:0.000341352 4:1.41314e-05 5:0.00494384 
-1 1:0.0181237 2:0.0127163 3:0.000420682 4:1.76643e-05 5:0.00236919 
1 2:0.0119374 3:0.00320906 4:0.000505199 5:0.0437909 
-1 1:0.0714679 3:0.00635022 4:0.000118351 5:0.034397 
-1 2:0.021789 3:4.50714e-05 5:0.00535196 
-1 1:0.0808792 2:0.0830628 3:0.0131478 4:0.0002473 5:0.00944486 
-1 1:0.048708 3:0.000930283 4:5.12265e-05 5:0.0986983 
-1 1:0.0223246 3:0.00058065 4:3.53286e-06 5:0.00923549 
-1 1:0.0380132 2:0.00125293 3:0.000515411 4:1.32482e-05 5:0.00634789 
-1 1:0.176684 2:0.334164 3:0.0444985 4:0.000779879 5:0.0589242 
-1 2:0.0146394 3:0.0236506 4:0.00138135 5:0.0119339 
-1 1:0.0605765 2:0.0411137 3:0.0146918 4:0.000253483 5:0.0232625 
-1 2:0.0693154 3:0.000572944 4:9.71537e-06 5:0.00912688 
-1 1:0.0407235 3:0.000393815 4:1.05986e-05 5:0.0137275 
-1 2:0.0595889 3:0.00150752 4:6.18251e-06 5:0.0252533 
-1 1:0.0417315 2:0.0279166 3:0.0296265 4:0.00100951 5:0.014574 
-1 1:0.12901 2:0.334164 3:0.0193501 4:0.000431892 5:0.196607 
-1 1:0.000238381 3:0.0018782 4:1.85475e-05 5:0.0140125 
-1 1:0.00465501 2:0.0512914 3:0.000438391 4:4.41608e-06 5:0.0125782 
-1 1:0.0244933 2:0.387978 3:0.00265963 4:8.83215e-07 5:0.010143 
-1 2:0.10124 3:0.000564745 4:1.76643e-05 5:0.00448814 
1 1:0.11324 3:0.0170537 4:0.000146614 5:0.0273056 
-1 1:0.0650682 3:0.00700793 4:0.000177526 5:0.0262576 
-1 1:0.019027 2:0.0375521 3:0.000521173 4:7.06572e-06 5:0.00829442 
-1 1:0.0517498 2:0.000255448 3:0.00254446 4:9.09712e-05 5:0.0029363 
-1 1:0.435824 2:0.119488 3:0.0065287 4:0.000378899 5:0.10346 
-1 2:0.00170596 3:0.000778003 4:8.83215e-07 5:0.00192189 
-1 2:0.0117787 3:0.00167592 4:2.91461e-05 5:0.00277731 
-1 1:0.0291232 3:0.0415773 4:0.000872617 5:0.00646434 
-1 1:0.166087 2:0.00369478 3:0.00415247 4:8.03726e-05 5:0.0254862 
-1 1:0.103136 3:0.00870344 4:0.000591754 5:0.0662025 
-1 2:0.0289272 3:0.000859148 4:2.73797e-05 5:0.0142107 
-1 1:0.0199952 2:0.0199923 3:0.000200308 4:5.29929e-06 5:0.00183176 
-1 2:0.0445793 3:0.00110106 4:2.29636e-05 5:0.0342027 
-1 2:0.0150956 3:0.00413591 4:0.000909712 5:0.0174112 
-1 1:0.022236 2:0.090316 3:0.000403698 4:8.83215e-07 5:0.00857937 
-1 1:0.0547704 2:0.230398 3:0.00113528 4:9.71537e-06 5:0.00332818 
-1 1:0.0259538 2:0.135926 3:0.000468233 4:6.18251e-06 5:0.00532005 
-1 1:0.316188 2:0.0379986 3:0.00682039 4:0.000118351 5:0.0426634 
-1 1:0.0109744 3:0.00333623 4:7.06572e-05 5:0.0370002 
-1 2:0.149851 3:0.000295721 4:1.85475e-05 5:0.00138893 
1 1:0.0456742 3:0.022451 4:0.000514031 
-1 1:0.0436403 2:0.0493129 3:0.00681973 4:0.000161628 5:0.0197272 
-1 1:0.173024 2:0.0963365 3:0.0155809 4:0.000437191 5:0.00386505 
-1 1:0.000110794 2:0.0385233 3:0.000487504 4:5.03433e-05 5:0.000655559 
-1 2:0.0883502 3:0.000743814 4:1.50147e-05 5:0.0304172 
-1 1:0.120543 2:0.20293 3:0.00273156 4:0.00014573 5:0.0192833 
1 1:2.11163e-05 2:0.575434 3:0.000394555 4:1.76643e-06 5:0.0360988 
1 1:0.111876 2:3.68755e-05 3:0.0889203 4:0.00270087 5:0.0950964 
1 1:0.00339327 2:0.0229082 3:0.0902368 4:0.0125275 5:0.0660872 
-1 2:0.15783 3:0.00873939 4:0.000259665 5:0.00786559 
1 1:0.038639 2:0.0695346 3:0.0456825 4:0.00307712 5:0.0090054 
1 1:0.116105 2:0.00864457 3:0.000452812 4:7.06572e-06 5:0.0516912 
-1 1:0.022236 3:0.0297258 4:0.0022151 5:0.0305812 
1 1:0.00788713 2:0.0842515 3:0.00101907 4:1.05986e-05 5:0.106614 
-1 1:0.210237 2:0.26737 3:0.0023276 4:2.20804e-05 5:0.0366973 
-1 2:0.00226376 3:0.00192615 4:2.20804e-05 5:0.0321274 
-1 1:0.00309178 3:0.00842167 4:0.000216388 5:0.00947621 
-1 2:0.0687881 3:0.00137357 4:3.00293e-05 5:0.0860775 
-1 1:0.16246 3:0.00037576 4:8.83215e-06 5:0.0170535 
1 1:0.216474 2:0.387309 3:0.00895163 4:0.000522863 5:0.0627741 
-1 1:0.0468357 2:0.0336612 3:0.000154316 4:7.06572e-06 5:0.00311153 
-1 2:0.106725 3:0.00294415 5:0.0131319 
-1 1:0.126136 2:0.0131537 3:0.000448006 4:8.83215e-06 5:0.00848364 
-1 2:0.00140955 3:0.00115988 4:3.79782e-05 5:0.00633054 
-1 1:0.00750205 2:0.00244992 3:0.0011941 4:2.91461e-05 5:0.00667427 
-1 1:0.0417315 2:0.246889 3:0.0122637 4:0.00027733 5:0.00578639 
-1 2:0.0148856 3:0.0018981 4:4.15111e-05 5:0.00950812 
-1 1:0.0180219 2:0.000245975 3:0.0261438 4:0.00182031 5:0.0417677 
-1 1:0.0356611 3:0.00191527 4:3.62118e-05 5:0.00734999 
-1 1:0.0033359 2:0.138735 3:0.000395917 4:3.53286e-06 5:0.00129768 
-1 1:0.0147722 3:0.000638931 4:1.85475e-05 5:0.00146843 
-1 1:0.0251718 3:4.30837e-05 5:0.00166773 
-1 1:0.14814 2:0.0908573 3:0.026619 4:0.000285278 5:0.0464926 
-1 2:0.0900744 3:0.0050986 4:0.000381549 5:0.128589 
1 1:0.223115 2:0.246889 3:0.0139583 4:0.000320607 5:0.226549 
1 2:0.0467075 3:0.134874 4:0.00722647 5:0.185087 
1 1:0.141829 3:0.00848326 4:0.000217271 5:0.0692575 
-1 1:0.0838614 2:0.469435 3:0.0166349 4:0.000589988 5:0.498422 
-1 2:0.553979 3:0.00342856 4:1.58979e-05 5:0.101212 
1 1:0.00218418 3:0.00354432 4:8.47887e-05 5:0.10513 
1 1:0.129724 2:0.264832 3:0.000892856 4:1.58979e-05 5:0.109126 
-1 1:0.225077 3:0.00533335 4:0.000130716 5:0.111321 
-1 2:0.0165638 3:0.00730721 4:4.41608e-06 5:0.0114407 
-1 1:0.126059 3:0.016249 4:0.00037095 5:0.214749 
-1 1:0.093622 3:0.01953 4:0.000189008 5:0.0294274 
-1 1:0.0869028 2:0.138735 3:0.00463468 4:0.000240235 5:0.0307547 
-1 2:0.0784782 3:0.00371224 4:4.59272e-05 5:0.0171901 
-1 1:0.0180219 3:0.0621939 4:0.00204994 5:0.00224267 
-1 2:0.0276956 3:0.00704361 4:0.000245534 5:0.0414693 
-1 1:0.058849 3:0.000553917 4:1.32482e-05 5:0.00182336 
-1 1:0.273145 2:0.000184136 3:0.00211093 4:1.50147e-05 5:0.0101883 
-1 1:0.0602448 2:0.161216 3:0.000584586 4:1.14818e-05 5:0.00841142 
